<?xml version="1.0"?>
<opencv_storage>
<cascade>
  <stageType>BOOST</stageType>
  <featureType>HAAR</featureType>
  <height>20</height>
  <width>20</width>
  <stageParams>
    <boostType>GAB</boostType>
    <minHitRate>9.9500000476837158e-01</minHitRate>
    <maxFalseAlarm>5.0000000000000000e-01</maxFalseAlarm>
    <weightTrimRate>9.4999999999999996e-01</weightTrimRate>
    <maxDepth>1</maxDepth>
    <maxWeakCount>100</maxWeakCount></stageParams>
  <featureParams>
    <maxCatCount>0</maxCatCount>
    <featSize>1</featSize>
    <mode>BASIC</mode></featureParams>
  <stageNum>17</stageNum>
  <stages>
    <!-- stage 0 -->
    <_>
      <maxWeakCount>10</maxWeakCount>
      <stageThreshold>-9.7873008251190186e-01</stageThreshold>
      <weakClassifiers>
        <_>
          <internalNodes>
            0 -1 57 5.8839758858084679e-03</internalNodes>
          <leafValues>
            -2.4503311514854431e-01 7.0541691780090332e-01</leafValues></_>
        <_>
          <internalNodes>
            0 -1 211 -3.3490441739559174e-02</internalNodes>
          <leafValues>
            7.7960020303726196e-01 -2.4933564662933350e-01</leafValues></_>
        <_>
          <internalNodes>
            0 -1 442 1.7992102075368166e-03</internalNodes>
          <leafValues>
            -2.8523623943328857e-01 6.0050874948501587e-01</leafValues></_>
        <_>
          <internalNodes>
            0 -1 460 2.5463625788688660e-03</internalNodes>
          <leafValues>
            -3.2066968083381653e-01 5.5188894271850586e-01</leafValues></_>
        <_>
          <internalNodes>
            0 -1 223 3.6481949500739574e-03</internalNodes>
          <leafValues>
            -2.8525927662849426e-01 5.2137231826782227e-01</leafValues></_>
        <_>
          <internalNodes>
            0 -1 367 -2.4976949207484722e-03</internalNodes>
          <leafValues>
            5.5711865425109863e-01 -2.6824924349784851e-01</leafValues></_>
        <_>
          <internalNodes>
            0 -1 331 -1.8176166340708733e-03</internalNodes>
          <leafValues>
            6.0824489593505859e-01 -2.5967523455619812e-01</leafValues></_>
        <_>
          <internalNodes>
            0 -1 127 6.4207531977444887e-04</internalNodes>
          <leafValues>
            -2.6214000582695007e-01 4.9302163720130920e-01</leafValues></_>
        <_>
          <internalNodes>
            0 -1 374 -1.8096596468240023e-03</internalNodes>
          <leafValues>
            5.5338561534881592e-01 -2.5456559658050537e-01</leafValues></_>
        <_>
          <internalNodes>
            0 -1 279 1.6858051531016827e-03</internalNodes>
          <leafValues>
            -1.5453812479972839e-01 6.4348274469375610e-01</leafValues></_></weakClassifiers></_>
    <!-- stage 1 -->
    <_>
      <maxWeakCount>18</maxWeakCount>
      <stageThreshold>-1.0733993053436279e+00</stageThreshold>
      <weakClassifiers>
        <_>
          <internalNodes>
            0 -1 79 7.9749993979930878e-02</internalNodes>
          <leafValues>
            -5.3516820073127747e-02 6.9683909416198730e-01</leafValues></_>
        <_>
          <internalNodes>
            0 -1 61 4.5473426580429077e-03</internalNodes>
          <leafValues>
            -3.2829016447067261e-01 4.4736468791961670e-01</leafValues></_>
        <_>
          <internalNodes>
            0 -1 223 6.6708568483591080e-03</internalNodes>
          <leafValues>
            -2.4485285580158234e-01 5.6022286415100098e-01</leafValues></_>
        <_>
          <internalNodes>
            0 -1 373 4.5407293364405632e-03</internalNodes>
          <leafValues>
            -2.5786337256431580e-01 5.3447425365447998e-01</leafValues></_>
        <_>
          <internalNodes>
            0 -1 414 -2.3250761441886425e-03</internalNodes>
          <leafValues>
            3.0750247836112976e-01 -4.1280633211135864e-01</leafValues></_>
        <_>
          <internalNodes>
            0 -1 244 1.2280466035008430e-02</internalNodes>
          <leafValues>
            -1.6633822023868561e-01 6.3822597265243530e-01</leafValues></_>
        <_>
          <internalNodes>
            0 -1 181 6.9623405579477549e-04</internalNodes>
          <leafValues>
            -2.1960945427417755e-01 4.0359616279602051e-01</leafValues></_>
        <_>
          <internalNodes>
            0 -1 248 -8.3284014835953712e-03</internalNodes>
          <leafValues>
            5.8894014358520508e-01 -1.2435510009527206e-01</leafValues></_>
        <_>
          <internalNodes>
            0 -1 123 1.7511419719085097e-03</internalNodes>
          <leafValues>
            -1.9313837587833405e-01 5.1008236408233643e-01</leafValues></_>
        <_>
          <internalNodes>
            0 -1 182 -2.7243609074503183e-03</internalNodes>
          <leafValues>
            5.0739288330078125e-01 -1.4015018939971924e-01</leafValues></_>
        <_>
          <internalNodes>
            0 -1 118 1.5975856222212315e-03</internalNodes>
          <leafValues>
            -2.2522661089897156e-01 3.4611770510673523e-01</leafValues></_>
        <_>
          <internalNodes>
            0 -1 430 1.8200464546680450e-03</internalNodes>
          <leafValues>
            -2.0238524675369263e-01 3.5736954212188721e-01</leafValues></_>
        <_>
          <internalNodes>
            0 -1 365 8.2450155168771744e-03</internalNodes>
          <leafValues>
            -1.1379008740186691e-01 5.8379119634628296e-01</leafValues></_>
        <_>
          <internalNodes>
            0 -1 383 5.1818382926285267e-03</internalNodes>
          <leafValues>
            -1.5545803308486938e-01 4.6794730424880981e-01</leafValues></_>
        <_>
          <internalNodes>
            0 -1 62 -1.1048870161175728e-02</internalNodes>
          <leafValues>
            -5.7767874002456665e-01 1.3815134763717651e-01</leafValues></_>
        <_>
          <internalNodes>
            0 -1 63 1.7269626259803772e-02</internalNodes>
          <leafValues>
            9.2377133667469025e-02 -6.4891570806503296e-01</leafValues></_>
        <_>
          <internalNodes>
            0 -1 137 -1.1508610099554062e-02</internalNodes>
          <leafValues>
            4.9318727850914001e-01 -1.4411446452140808e-01</leafValues></_>
        <_>
          <internalNodes>
            0 -1 396 7.8428145498037338e-03</internalNodes>
          <leafValues>
            -2.1336245536804199e-01 3.0803215503692627e-01</leafValues></_></weakClassifiers></_>
    <!-- stage 2 -->
    <_>
      <maxWeakCount>22</maxWeakCount>
      <stageThreshold>-1.0799567699432373e+00</stageThreshold>
      <weakClassifiers>
        <_>
          <internalNodes>
            0 -1 146 -3.8895070552825928e-02</internalNodes>
          <leafValues>
            7.6234000921249390e-01 4.1095890104770660e-02</leafValues></_>
        <_>
          <internalNodes>
            0 -1 56 3.9731282740831375e-03</internalNodes>
          <leafValues>
            -3.8882800936698914e-01 3.5780692100524902e-01</leafValues></_>
        <_>
          <internalNodes>
            0 -1 295 2.8129224665462971e-03</internalNodes>
          <leafValues>
            -2.4660138785839081e-01 4.7869288921356201e-01</leafValues></_>
        <_>
          <internalNodes>
            0 -1 459 -2.4056374095380306e-03</internalNodes>
          <leafValues>
            3.6118400096893311e-01 -3.2826840877532959e-01</leafValues></_>
        <_>
          <internalNodes>
            0 -1 206 9.8033249378204346e-03</internalNodes>
          <leafValues>
            -1.5616312623023987e-01 6.0356175899505615e-01</leafValues></_>
        <_>
          <internalNodes>
            0 -1 229 1.2213231530040503e-03</internalNodes>
          <leafValues>
            -2.7997729182243347e-01 3.4114494919776917e-01</leafValues></_>
        <_>
          <internalNodes>
            0 -1 368 -3.9975121617317200e-03</internalNodes>
          <leafValues>
            3.6868828535079956e-01 -2.3940195143222809e-01</leafValues></_>
        <_>
          <internalNodes>
            0 -1 11 -1.5363103151321411e-01</internalNodes>
          <leafValues>
            5.1624965667724609e-01 -1.3472670316696167e-01</leafValues></_>
        <_>
          <internalNodes>
            0 -1 197 -2.9588354751467705e-02</internalNodes>
          <leafValues>
            -6.0718840360641479e-01 1.4207272231578827e-01</leafValues></_>
        <_>
          <internalNodes>
            0 -1 347 -8.5819829255342484e-03</internalNodes>
          <leafValues>
            5.5797457695007324e-01 -1.5850950777530670e-01</leafValues></_>
        <_>
          <internalNodes>
            0 -1 428 4.0563289076089859e-03</internalNodes>
          <leafValues>
            -1.7048382759094238e-01 4.3540832400321960e-01</leafValues></_>
        <_>
          <internalNodes>
            0 -1 107 1.9005367066711187e-03</internalNodes>
          <leafValues>
            -1.7490729689598083e-01 3.5750094056129456e-01</leafValues></_>
        <_>
          <internalNodes>
            0 -1 340 -7.3839788092300296e-04</internalNodes>
          <leafValues>
            2.7613335847854614e-01 -2.3753781616687775e-01</leafValues></_>
        <_>
          <internalNodes>
            0 -1 397 -4.7096307389438152e-03</internalNodes>
          <leafValues>
            4.2019656300544739e-01 -1.8330782651901245e-01</leafValues></_>
        <_>
          <internalNodes>
            0 -1 389 1.2495879083871841e-02</internalNodes>
          <leafValues>
            1.2755924463272095e-01 -6.3285750150680542e-01</leafValues></_>
        <_>
          <internalNodes>
            0 -1 311 2.1550875157117844e-02</internalNodes>
          <leafValues>
            7.5980782508850098e-02 -7.5143027305603027e-01</leafValues></_>
        <_>
          <internalNodes>
            0 -1 289 2.4776596575975418e-02</internalNodes>
          <leafValues>
            7.5007170438766479e-02 -7.1018451452255249e-01</leafValues></_>
        <_>
          <internalNodes>
            0 -1 163 9.3864428345113993e-04</internalNodes>
          <leafValues>
            -1.9696734845638275e-01 3.4896248579025269e-01</leafValues></_>
        <_>
          <internalNodes>
            0 -1 232 2.0285747013986111e-03</internalNodes>
          <leafValues>
            -1.7725788056850433e-01 3.3318004012107849e-01</leafValues></_>
        <_>
          <internalNodes>
            0 -1 48 -2.4140421301126480e-02</internalNodes>
          <leafValues>
            -6.1808508634567261e-01 1.1361043900251389e-01</leafValues></_>
        <_>
          <internalNodes>
            0 -1 187 1.4610877260565758e-03</internalNodes>
          <leafValues>
            -1.8346571922302246e-01 3.6359778046607971e-01</leafValues></_>
        <_>
          <internalNodes>
            0 -1 128 -2.9390926938503981e-03</internalNodes>
          <leafValues>
            3.6077281832695007e-01 -1.6703079640865326e-01</leafValues></_></weakClassifiers></_>
    <!-- stage 3 -->
    <_>
      <maxWeakCount>30</maxWeakCount>
      <stageThreshold>-1.0660659074783325e+00</stageThreshold>
      <weakClassifiers>
        <_>
          <internalNodes>
            0 -1 176 2.8213519603013992e-02</internalNodes>
          <leafValues>
            4.5513652265071869e-02 7.1428573131561279e-01</leafValues></_>
        <_>
          <internalNodes>
            0 -1 223 5.5885398760437965e-03</internalNodes>
          <leafValues>
            -2.1504345536231995e-01 4.6683868765830994e-01</leafValues></_>
        <_>
          <internalNodes>
            0 -1 415 -2.8075613081455231e-02</internalNodes>
          <leafValues>
            4.4675868749618530e-01 -1.8967218697071075e-01</leafValues></_>
        <_>
          <internalNodes>
            0 -1 56 2.0913863554596901e-03</internalNodes>
          <leafValues>
            -4.6679353713989258e-01 1.6096718609333038e-01</leafValues></_>
        <_>
          <internalNodes>
            0 -1 286 6.2370547093451023e-03</internalNodes>
          <leafValues>
            -1.4949895441532135e-01 5.1274847984313965e-01</leafValues></_>
        <_>
          <internalNodes>
            0 -1 403 1.3301973231136799e-03</internalNodes>
          <leafValues>
            -2.0132653415203094e-01 3.2473662495613098e-01</leafValues></_>
        <_>
          <internalNodes>
            0 -1 44 6.5247192978858948e-03</internalNodes>
          <leafValues>
            -1.1194892227649689e-01 5.1335829496383667e-01</leafValues></_>
        <_>
          <internalNodes>
            0 -1 355 -3.0795186758041382e-03</internalNodes>
          <leafValues>
            -4.9325773119926453e-01 1.3587415218353271e-01</leafValues></_>
        <_>
          <internalNodes>
            0 -1 95 -1.4237474650144577e-02</internalNodes>
          <leafValues>
            -6.8285256624221802e-01 6.6959291696548462e-02</leafValues></_>
        <_>
          <internalNodes>
            0 -1 121 1.7500026151537895e-03</internalNodes>
          <leafValues>
            -2.5945147871971130e-01 2.4683360755443573e-01</leafValues></_>
        <_>
          <internalNodes>
            0 -1 8 -2.4589648091932759e-05</internalNodes>
          <leafValues>
            -2.6746422052383423e-01 2.1441605687141418e-01</leafValues></_>
        <_>
          <internalNodes>
            0 -1 372 -4.5097041875123978e-03</internalNodes>
          <leafValues>
            4.5313394069671631e-01 -1.1712457984685898e-01</leafValues></_>
        <_>
          <internalNodes>
            0 -1 142 1.2665919493883848e-03</internalNodes>
          <leafValues>
            -1.7613032460212708e-01 3.6855152249336243e-01</leafValues></_>
        <_>
          <internalNodes>
            0 -1 298 1.4716148376464844e-02</internalNodes>
          <leafValues>
            -8.0964311957359314e-02 6.5859794616699219e-01</leafValues></_>
        <_>
          <internalNodes>
            0 -1 319 -9.2310067266225815e-03</internalNodes>
          <leafValues>
            -6.8404388427734375e-01 9.0902648866176605e-02</leafValues></_>
        <_>
          <internalNodes>
            0 -1 426 1.6411491669714451e-03</internalNodes>
          <leafValues>
            -1.9897872209548950e-01 2.7305471897125244e-01</leafValues></_>
        <_>
          <internalNodes>
            0 -1 340 -1.0113278403878212e-03</internalNodes>
          <leafValues>
            2.5044861435890198e-01 -2.3092269897460938e-01</leafValues></_>
        <_>
          <internalNodes>
            0 -1 169 7.7182166278362274e-03</internalNodes>
          <leafValues>
            9.3622922897338867e-02 -6.0335958003997803e-01</leafValues></_>
        <_>
          <internalNodes>
            0 -1 379 -1.4177035540342331e-02</internalNodes>
          <leafValues>
            2.0137628912925720e-01 -2.6906245946884155e-01</leafValues></_>
        <_>
          <internalNodes>
            0 -1 207 -5.9758415445685387e-03</internalNodes>
          <leafValues>
            3.2333177328109741e-01 -1.7174056172370911e-01</leafValues></_>
        <_>
          <internalNodes>
            0 -1 250 -1.9232358317822218e-03</internalNodes>
          <leafValues>
            3.8858059048652649e-01 -1.6365833580493927e-01</leafValues></_>
        <_>
          <internalNodes>
            0 -1 208 3.2752787228673697e-03</internalNodes>
          <leafValues>
            1.0289409011602402e-01 -5.9269773960113525e-01</leafValues></_>
        <_>
          <internalNodes>
            0 -1 481 2.0959603716619313e-04</internalNodes>
          <leafValues>
            -2.3161582648754120e-01 2.2227853536605835e-01</leafValues></_>
        <_>
          <internalNodes>
            0 -1 87 -8.1781158223748207e-03</internalNodes>
          <leafValues>
            -6.7659735679626465e-01 7.3268279433250427e-02</leafValues></_>
        <_>
          <internalNodes>
            0 -1 201 3.4166626632213593e-02</internalNodes>
          <leafValues>
            -1.4483697712421417e-01 3.7441593408584595e-01</leafValues></_>
        <_>
          <internalNodes>
            0 -1 234 -2.2879266180098057e-03</internalNodes>
          <leafValues>
            2.8564295172691345e-01 -1.8740625679492950e-01</leafValues></_>
        <_>
          <internalNodes>
            0 -1 411 3.7752131465822458e-03</internalNodes>
          <leafValues>
            6.5343037247657776e-02 -7.0172607898712158e-01</leafValues></_>
        <_>
          <internalNodes>
            0 -1 23 8.8607482612133026e-03</internalNodes>
          <leafValues>
            -1.0535710304975510e-01 4.7184816002845764e-01</leafValues></_>
        <_>
          <internalNodes>
            0 -1 47 1.1664577759802341e-02</internalNodes>
          <leafValues>
            8.2460179924964905e-02 -6.2563461065292358e-01</leafValues></_>
        <_>
          <internalNodes>
            0 -1 327 -4.7062158584594727e-02</internalNodes>
          <leafValues>
            4.9443572759628296e-01 -9.9727593362331390e-02</leafValues></_></weakClassifiers></_>
    <!-- stage 4 -->
    <_>
      <maxWeakCount>32</maxWeakCount>
      <stageThreshold>-9.7941738367080688e-01</stageThreshold>
      <weakClassifiers>
        <_>
          <internalNodes>
            0 -1 334 1.5545039437711239e-02</internalNodes>
          <leafValues>
            9.5043733716011047e-02 7.4822336435317993e-01</leafValues></_>
        <_>
          <internalNodes>
            0 -1 222 3.6184019409120083e-03</internalNodes>
          <leafValues>
            -1.6788835823535919e-01 4.7058162093162537e-01</leafValues></_>
        <_>
          <internalNodes>
            0 -1 242 6.5173273906111717e-03</internalNodes>
          <leafValues>
            -1.5736231207847595e-01 5.0958651304244995e-01</leafValues></_>
        <_>
          <internalNodes>
            0 -1 25 -8.6714871227741241e-02</internalNodes>
          <leafValues>
            4.7947835922241211e-01 -1.4286936819553375e-01</leafValues></_>
        <_>
          <internalNodes>
            0 -1 370 1.6136089107021689e-03</internalNodes>
          <leafValues>
            -2.0148086547851562e-01 3.6086767911911011e-01</leafValues></_>
        <_>
          <internalNodes>
            0 -1 97 1.4541612472385168e-03</internalNodes>
          <leafValues>
            -2.2107613086700439e-01 2.6831200718879700e-01</leafValues></_>
        <_>
          <internalNodes>
            0 -1 483 2.0902780815958977e-03</internalNodes>
          <leafValues>
            -1.8255670368671417e-01 3.3758285641670227e-01</leafValues></_>
        <_>
          <internalNodes>
            0 -1 441 1.3730684295296669e-03</internalNodes>
          <leafValues>
            -1.8214443325996399e-01 3.3304172754287720e-01</leafValues></_>
        <_>
          <internalNodes>
            0 -1 220 3.0366785358637571e-03</internalNodes>
          <leafValues>
            -1.5822768211364746e-01 3.7253174185752869e-01</leafValues></_>
        <_>
          <internalNodes>
            0 -1 259 -1.7969574779272079e-02</internalNodes>
          <leafValues>
            -4.3384155631065369e-01 1.4323723316192627e-01</leafValues></_>
        <_>
          <internalNodes>
            0 -1 103 1.2082739267498255e-03</internalNodes>
          <leafValues>
            -2.7061733603477478e-01 2.0971952378749847e-01</leafValues></_>
        <_>
          <internalNodes>
            0 -1 308 -2.7796786744147539e-03</internalNodes>
          <leafValues>
            3.2041895389556885e-01 -1.7112472653388977e-01</leafValues></_>
        <_>
          <internalNodes>
            0 -1 314 3.6441399715840816e-03</internalNodes>
          <leafValues>
            -1.6269214451313019e-01 4.5573538541793823e-01</leafValues></_>
        <_>
          <internalNodes>
            0 -1 472 2.6607452891767025e-03</internalNodes>
          <leafValues>
            -1.4299517869949341e-01 3.3839052915573120e-01</leafValues></_>
        <_>
          <internalNodes>
            0 -1 210 -2.4651117622852325e-02</internalNodes>
          <leafValues>
            4.6379479765892029e-01 -1.1111009120941162e-01</leafValues></_>
        <_>
          <internalNodes>
            0 -1 356 1.2384594418108463e-02</internalNodes>
          <leafValues>
            7.3923915624618530e-02 -6.9590437412261963e-01</leafValues></_>
        <_>
          <internalNodes>
            0 -1 324 -1.0600153356790543e-02</internalNodes>
          <leafValues>
            -5.0260436534881592e-01 9.3267858028411865e-02</leafValues></_>
        <_>
          <internalNodes>
            0 -1 388 3.4396781120449305e-03</internalNodes>
          <leafValues>
            9.9000744521617889e-02 -5.4087334871292114e-01</leafValues></_>
        <_>
          <internalNodes>
            0 -1 306 -5.7839578948915005e-04</internalNodes>
          <leafValues>
            2.0011357963085175e-01 -2.3584917187690735e-01</leafValues></_>
        <_>
          <internalNodes>
            0 -1 88 2.8828747570514679e-02</internalNodes>
          <leafValues>
            5.4226510226726532e-02 -8.0370515584945679e-01</leafValues></_>
        <_>
          <internalNodes>
            0 -1 65 2.1234764717519283e-03</internalNodes>
          <leafValues>
            -1.4578403532505035e-01 3.2850411534309387e-01</leafValues></_>
        <_>
          <internalNodes>
            0 -1 264 5.1925927400588989e-03</internalNodes>
          <leafValues>
            8.6798392236232758e-02 -5.7737249135971069e-01</leafValues></_>
        <_>
          <internalNodes>
            0 -1 293 5.0851902924478054e-03</internalNodes>
          <leafValues>
            -1.5173961222171783e-01 3.4969136118888855e-01</leafValues></_>
        <_>
          <internalNodes>
            0 -1 391 2.9502613469958305e-03</internalNodes>
          <leafValues>
            -1.4447759091854095e-01 3.3550512790679932e-01</leafValues></_>
        <_>
          <internalNodes>
            0 -1 271 1.8582405522465706e-02</internalNodes>
          <leafValues>
            -1.0303684324026108e-01 4.4337666034698486e-01</leafValues></_>
        <_>
          <internalNodes>
            0 -1 13 -9.8587900400161743e-02</internalNodes>
          <leafValues>
            3.4212747216224670e-01 -1.2596295773983002e-01</leafValues></_>
        <_>
          <internalNodes>
            0 -1 85 5.1999036222696304e-03</internalNodes>
          <leafValues>
            -1.5026465058326721e-01 3.2573753595352173e-01</leafValues></_>
        <_>
          <internalNodes>
            0 -1 17 7.3500191792845726e-03</internalNodes>
          <leafValues>
            -1.7116868495941162e-01 2.6912507414817810e-01</leafValues></_>
        <_>
          <internalNodes>
            0 -1 34 -2.6750408578664064e-03</internalNodes>
          <leafValues>
            3.7721836566925049e-01 -1.3621008396148682e-01</leafValues></_>
        <_>
          <internalNodes>
            0 -1 127 6.4417300745844841e-04</internalNodes>
          <leafValues>
            -2.2458355128765106e-01 2.0804066956043243e-01</leafValues></_>
        <_>
          <internalNodes>
            0 -1 363 -3.8500656373798847e-03</internalNodes>
          <leafValues>
            4.1300532221794128e-01 -1.0622828453779221e-01</leafValues></_>
        <_>
          <internalNodes>
            0 -1 269 4.5129731297492981e-03</internalNodes>
          <leafValues>
            6.2708929181098938e-02 -7.5343590974807739e-01</leafValues></_></weakClassifiers></_>
    <!-- stage 5 -->
    <_>
      <maxWeakCount>35</maxWeakCount>
      <stageThreshold>-9.4469600915908813e-01</stageThreshold>
      <weakClassifiers>
        <_>
          <internalNodes>
            0 -1 152 1.9790183752775192e-02</internalNodes>
          <leafValues>
            5.8740269392728806e-02 6.3480961322784424e-01</leafValues></_>
        <_>
          <internalNodes>
            0 -1 261 -2.3879595100879669e-03</internalNodes>
          <leafValues>
            3.9854812622070312e-01 -2.1091413497924805e-01</leafValues></_>
        <_>
          <internalNodes>
            0 -1 280 1.0753423906862736e-02</internalNodes>
          <leafValues>
            -1.1830391734838486e-01 5.7027202844619751e-01</leafValues></_>
        <_>
          <internalNodes>
            0 -1 394 1.2230991851538420e-03</internalNodes>
          <leafValues>
            -3.3346784114837646e-01 1.7663288116455078e-01</leafValues></_>
        <_>
          <internalNodes>
            0 -1 141 8.2640664186328650e-04</internalNodes>
          <leafValues>
            -2.0141537487506866e-01 2.5330454111099243e-01</leafValues></_>
        <_>
          <internalNodes>
            0 -1 399 -2.0922202616930008e-02</internalNodes>
          <leafValues>
            5.3384971618652344e-01 -1.1420554667711258e-01</leafValues></_>
        <_>
          <internalNodes>
            0 -1 446 5.3123943507671356e-03</internalNodes>
          <leafValues>
            -1.5808403491973877e-01 3.0429053306579590e-01</leafValues></_>
        <_>
          <internalNodes>
            0 -1 174 -1.4672687277197838e-02</internalNodes>
          <leafValues>
            4.7294116020202637e-01 -1.1318798363208771e-01</leafValues></_>
        <_>
          <internalNodes>
            0 -1 56 1.1862914543598890e-03</internalNodes>
          <leafValues>
            -3.7696808576583862e-01 1.3035848736763000e-01</leafValues></_>
        <_>
          <internalNodes>
            0 -1 319 -1.0654118843376637e-02</internalNodes>
          <leafValues>
            -6.9449269771575928e-01 6.3897632062435150e-02</leafValues></_>
        <_>
          <internalNodes>
            0 -1 352 -1.0607177391648293e-02</internalNodes>
          <leafValues>
            5.2112996578216553e-01 -9.2175625264644623e-02</leafValues></_>
        <_>
          <internalNodes>
            0 -1 501 -7.2736869333311915e-04</internalNodes>
          <leafValues>
            2.0334097743034363e-01 -2.2123952209949493e-01</leafValues></_>
        <_>
          <internalNodes>
            0 -1 159 -1.3955791946500540e-03</internalNodes>
          <leafValues>
            3.9353552460670471e-01 -1.2069238722324371e-01</leafValues></_>
        <_>
          <internalNodes>
            0 -1 224 -5.8650951832532883e-03</internalNodes>
          <leafValues>
            -6.4530259370803833e-01 7.8248552978038788e-02</leafValues></_>
        <_>
          <internalNodes>
            0 -1 376 -1.6049400437623262e-03</internalNodes>
          <leafValues>
            2.4501426517963409e-01 -1.9110302627086639e-01</leafValues></_>
        <_>
          <internalNodes>
            0 -1 289 -3.0451288446784019e-02</internalNodes>
          <leafValues>
            -7.1819937229156494e-01 6.2196776270866394e-02</leafValues></_>
        <_>
          <internalNodes>
            0 -1 41 -2.0233837421983480e-03</internalNodes>
          <leafValues>
            -5.6560826301574707e-01 7.2389677166938782e-02</leafValues></_>
        <_>
          <internalNodes>
            0 -1 192 2.0555369555950165e-03</internalNodes>
          <leafValues>
            -1.7361646890640259e-01 2.6064312458038330e-01</leafValues></_>
        <_>
          <internalNodes>
            0 -1 287 -2.5100221391767263e-03</internalNodes>
          <leafValues>
            4.0357056260108948e-01 -1.0625033825635910e-01</leafValues></_>
        <_>
          <internalNodes>
            0 -1 295 2.0637642592191696e-03</internalNodes>
          <leafValues>
            -1.7221409082412720e-01 2.6069301366806030e-01</leafValues></_>
        <_>
          <internalNodes>
            0 -1 447 -1.0523606091737747e-02</internalNodes>
          <leafValues>
            -4.8071396350860596e-01 9.3344926834106445e-02</leafValues></_>
        <_>
          <internalNodes>
            0 -1 444 1.9709939137101173e-02</internalNodes>
          <leafValues>
            4.5693498104810715e-02 -8.1539523601531982e-01</leafValues></_>
        <_>
          <internalNodes>
            0 -1 106 4.3967734090983868e-03</internalNodes>
          <leafValues>
            -1.7357389628887177e-01 2.3737432062625885e-01</leafValues></_>
        <_>
          <internalNodes>
            0 -1 178 6.8525550886988640e-03</internalNodes>
          <leafValues>
            8.1343479454517365e-02 -5.9099185466766357e-01</leafValues></_>
        <_>
          <internalNodes>
            0 -1 278 -9.7806584089994431e-03</internalNodes>
          <leafValues>
            3.4648615121841431e-01 -1.3456918299198151e-01</leafValues></_>
        <_>
          <internalNodes>
            0 -1 251 -4.5241797342896461e-03</internalNodes>
          <leafValues>
            4.1873520612716675e-01 -1.0289561748504639e-01</leafValues></_>
        <_>
          <internalNodes>
            0 -1 113 9.8042842000722885e-03</internalNodes>
          <leafValues>
            -1.2670153379440308e-01 3.2465252280235291e-01</leafValues></_>
        <_>
          <internalNodes>
            0 -1 258 1.7709895968437195e-02</internalNodes>
          <leafValues>
            8.2136645913124084e-02 -5.6402099132537842e-01</leafValues></_>
        <_>
          <internalNodes>
            0 -1 119 2.1891912911087275e-03</internalNodes>
          <leafValues>
            -1.2875108420848846e-01 3.5354292392730713e-01</leafValues></_>
        <_>
          <internalNodes>
            0 -1 122 -1.8380242399871349e-03</internalNodes>
          <leafValues>
            3.2604813575744629e-01 -1.3512113690376282e-01</leafValues></_>
        <_>
          <internalNodes>
            0 -1 215 2.4726751726120710e-03</internalNodes>
          <leafValues>
            -1.4079420268535614e-01 3.4422922134399414e-01</leafValues></_>
        <_>
          <internalNodes>
            0 -1 252 -2.3846946656703949e-02</internalNodes>
          <leafValues>
            3.3960780501365662e-01 -1.3852955400943756e-01</leafValues></_>
        <_>
          <internalNodes>
            0 -1 410 -5.1501854322850704e-03</internalNodes>
          <leafValues>
            -8.5884195566177368e-01 4.9434304237365723e-02</leafValues></_>
        <_>
          <internalNodes>
            0 -1 371 -7.0688752457499504e-03</internalNodes>
          <leafValues>
            -6.4386820793151855e-01 5.7653531432151794e-02</leafValues></_>
        <_>
          <internalNodes>
            0 -1 99 4.5286497334018350e-04</internalNodes>
          <leafValues>
            -1.9255931675434113e-01 2.2922109067440033e-01</leafValues></_></weakClassifiers></_>
    <!-- stage 6 -->
    <_>
      <maxWeakCount>33</maxWeakCount>
      <stageThreshold>-9.5025485754013062e-01</stageThreshold>
      <weakClassifiers>
        <_>
          <internalNodes>
            0 -1 246 -5.9000365436077118e-02</internalNodes>
          <leafValues>
            7.0658683776855469e-01 1.1307420581579208e-01</leafValues></_>
        <_>
          <internalNodes>
            0 -1 124 -9.6777651924639940e-04</internalNodes>
          <leafValues>
            2.8998205065727234e-01 -3.1811505556106567e-01</leafValues></_>
        <_>
          <internalNodes>
            0 -1 358 -1.0416319593787193e-02</internalNodes>
          <leafValues>
            3.1944376230239868e-01 -2.7026963233947754e-01</leafValues></_>
        <_>
          <internalNodes>
            0 -1 301 1.4449912123382092e-03</internalNodes>
          <leafValues>
            -2.1371525526046753e-01 3.9245656132698059e-01</leafValues></_>
        <_>
          <internalNodes>
            0 -1 378 3.8717824500054121e-03</internalNodes>
          <leafValues>
            -1.9749790430068970e-01 3.5245153307914734e-01</leafValues></_>
        <_>
          <internalNodes>
            0 -1 431 -1.0485788807272911e-03</internalNodes>
          <leafValues>
            3.4064945578575134e-01 -1.9885794818401337e-01</leafValues></_>
        <_>
          <internalNodes>
            0 -1 282 -4.4573275372385979e-03</internalNodes>
          <leafValues>
            3.0041235685348511e-01 -1.9285172224044800e-01</leafValues></_>
        <_>
          <internalNodes>
            0 -1 424 -7.4647609144449234e-03</internalNodes>
          <leafValues>
            3.1939294934272766e-01 -1.6179005801677704e-01</leafValues></_>
        <_>
          <internalNodes>
            0 -1 295 4.4520976953208447e-03</internalNodes>
          <leafValues>
            -1.2331562489271164e-01 3.7866777181625366e-01</leafValues></_>
        <_>
          <internalNodes>
            0 -1 491 -1.5659788623452187e-03</internalNodes>
          <leafValues>
            2.8035330772399902e-01 -1.6861498355865479e-01</leafValues></_>
        <_>
          <internalNodes>
            0 -1 168 3.8636247627437115e-03</internalNodes>
          <leafValues>
            -1.1385981738567352e-01 4.0186223387718201e-01</leafValues></_>
        <_>
          <internalNodes>
            0 -1 188 -5.3758975118398666e-03</internalNodes>
          <leafValues>
            2.2616226971149445e-01 -2.0786471664905548e-01</leafValues></_>
        <_>
          <internalNodes>
            0 -1 193 7.5594019144773483e-03</internalNodes>
          <leafValues>
            -7.8086495399475098e-02 6.0927981138229370e-01</leafValues></_>
        <_>
          <internalNodes>
            0 -1 116 -3.4433156251907349e-03</internalNodes>
          <leafValues>
            -4.1655993461608887e-01 1.3290734589099884e-01</leafValues></_>
        <_>
          <internalNodes>
            0 -1 390 2.1540988236665726e-03</internalNodes>
          <leafValues>
            -2.6336586475372314e-01 1.6721253097057343e-01</leafValues></_>
        <_>
          <internalNodes>
            0 -1 482 2.2508579422719777e-04</internalNodes>
          <leafValues>
            -1.8434554338455200e-01 2.2881768643856049e-01</leafValues></_>
        <_>
          <internalNodes>
            0 -1 101 -6.8215066567063332e-03</internalNodes>
          <leafValues>
            4.0639466047286987e-01 -1.0957039147615433e-01</leafValues></_>
        <_>
          <internalNodes>
            0 -1 413 -2.1400254219770432e-02</internalNodes>
          <leafValues>
            -5.8069932460784912e-01 8.2605913281440735e-02</leafValues></_>
        <_>
          <internalNodes>
            0 -1 208 4.5220050960779190e-03</internalNodes>
          <leafValues>
            5.3319469094276428e-02 -6.8204724788665771e-01</leafValues></_>
        <_>
          <internalNodes>
            0 -1 226 -1.5592104755342007e-02</internalNodes>
          <leafValues>
            -4.1349154710769653e-01 9.1816939413547516e-02</leafValues></_>
        <_>
          <internalNodes>
            0 -1 6 7.5359147740527987e-04</internalNodes>
          <leafValues>
            -1.8206290900707245e-01 2.3990909755229950e-01</leafValues></_>
        <_>
          <internalNodes>
            0 -1 227 1.1975005269050598e-02</internalNodes>
          <leafValues>
            6.8526118993759155e-02 -6.4376080036163330e-01</leafValues></_>
        <_>
          <internalNodes>
            0 -1 267 -5.0463951192796230e-03</internalNodes>
          <leafValues>
            -4.9421703815460205e-01 8.4915809333324432e-02</leafValues></_>
        <_>
          <internalNodes>
            0 -1 144 -5.3236866369843483e-03</internalNodes>
          <leafValues>
            4.3260282278060913e-01 -1.0284484922885895e-01</leafValues></_>
        <_>
          <internalNodes>
            0 -1 42 2.7667339891195297e-03</internalNodes>
          <leafValues>
            8.5576161742210388e-02 -5.4372072219848633e-01</leafValues></_>
        <_>
          <internalNodes>
            0 -1 344 -4.2963968007825315e-04</internalNodes>
          <leafValues>
            1.8304920196533203e-01 -2.2841098904609680e-01</leafValues></_>
        <_>
          <internalNodes>
            0 -1 313 2.4955142289400101e-03</internalNodes>
          <leafValues>
            -9.6909038722515106e-02 4.5620110630989075e-01</leafValues></_>
        <_>
          <internalNodes>
            0 -1 209 -6.7222500219941139e-03</internalNodes>
          <leafValues>
            -5.6710684299468994e-01 8.1047400832176208e-02</leafValues></_>
        <_>
          <internalNodes>
            0 -1 346 2.8536310419440269e-03</internalNodes>
          <leafValues>
            -1.3803893327713013e-01 3.4705185890197754e-01</leafValues></_>
        <_>
          <internalNodes>
            0 -1 362 4.3282960541546345e-03</internalNodes>
          <leafValues>
            7.5795240700244904e-02 -6.2011706829071045e-01</leafValues></_>
        <_>
          <internalNodes>
            0 -1 225 -1.2862937524914742e-02</internalNodes>
          <leafValues>
            -8.0198186635971069e-01 4.2980391532182693e-02</leafValues></_>
        <_>
          <internalNodes>
            0 -1 273 9.5030106604099274e-03</internalNodes>
          <leafValues>
            -8.3276331424713135e-02 5.8118462562561035e-01</leafValues></_>
        <_>
          <internalNodes>
            0 -1 1 -1.5250580012798309e-01</internalNodes>
          <leafValues>
            7.8028458356857300e-01 -4.1662380099296570e-02</leafValues></_></weakClassifiers></_>
    <!-- stage 7 -->
    <_>
      <maxWeakCount>27</maxWeakCount>
      <stageThreshold>-8.7966805696487427e-01</stageThreshold>
      <weakClassifiers>
        <_>
          <internalNodes>
            0 -1 262 -7.5813662260770798e-03</internalNodes>
          <leafValues>
            7.3017507791519165e-01 1.1046847701072693e-01</leafValues></_>
        <_>
          <internalNodes>
            0 -1 315 1.0707085952162743e-02</internalNodes>
          <leafValues>
            -5.2548833191394806e-02 7.8805041313171387e-01</leafValues></_>
        <_>
          <internalNodes>
            0 -1 509 -1.0398002341389656e-02</internalNodes>
          <leafValues>
            6.0479235649108887e-01 -1.0040130466222763e-01</leafValues></_>
        <_>
          <internalNodes>
            0 -1 200 -4.7201868146657944e-03</internalNodes>
          <leafValues>
            4.3377119302749634e-01 -1.7171329259872437e-01</leafValues></_>
        <_>
          <internalNodes>
            0 -1 351 4.5973537489771843e-03</internalNodes>
          <leafValues>
            -1.0437009483575821e-01 5.6495243310928345e-01</leafValues></_>
        <_>
          <internalNodes>
            0 -1 460 3.0022063292562962e-03</internalNodes>
          <leafValues>
            -1.8568512797355652e-01 2.9930853843688965e-01</leafValues></_>
        <_>
          <internalNodes>
            0 -1 74 1.0752740781754255e-03</internalNodes>
          <leafValues>
            -1.8311510980129242e-01 3.1050270795822144e-01</leafValues></_>
        <_>
          <internalNodes>
            0 -1 38 1.2243944220244884e-03</internalNodes>
          <leafValues>
            -2.3345531523227692e-01 2.5904893875122070e-01</leafValues></_>
        <_>
          <internalNodes>
            0 -1 35 -1.5312431380152702e-02</internalNodes>
          <leafValues>
            -7.5073617696762085e-01 7.8345410525798798e-02</leafValues></_>
        <_>
          <internalNodes>
            0 -1 49 -2.0431948360055685e-03</internalNodes>
          <leafValues>
            3.1502139568328857e-01 -1.8271704018115997e-01</leafValues></_>
        <_>
          <internalNodes>
            0 -1 348 9.0482737869024277e-04</internalNodes>
          <leafValues>
            -2.6329517364501953e-01 2.1447394788265228e-01</leafValues></_>
        <_>
          <internalNodes>
            0 -1 179 8.4228231571614742e-04</internalNodes>
          <leafValues>
            -2.2730010747909546e-01 2.3820888996124268e-01</leafValues></_>
        <_>
          <internalNodes>
            0 -1 489 7.5983116403222084e-03</internalNodes>
          <leafValues>
            7.9562492668628693e-02 -6.5173381567001343e-01</leafValues></_>
        <_>
          <internalNodes>
            0 -1 40 -1.2059992179274559e-02</internalNodes>
          <leafValues>
            -7.0697224140167236e-01 7.4503079056739807e-02</leafValues></_>
        <_>
          <internalNodes>
            0 -1 46 4.3995436280965805e-03</internalNodes>
          <leafValues>
            6.1242774128913879e-02 -7.0710766315460205e-01</leafValues></_>
        <_>
          <internalNodes>
            0 -1 10 7.5009912252426147e-03</internalNodes>
          <leafValues>
            -1.3343605399131775e-01 4.3038767576217651e-01</leafValues></_>
        <_>
          <internalNodes>
            0 -1 67 6.9952886551618576e-03</internalNodes>
          <leafValues>
            -1.8925821781158447e-01 2.5203487277030945e-01</leafValues></_>
        <_>
          <internalNodes>
            0 -1 20 5.9391148388385773e-03</internalNodes>
          <leafValues>
            9.4422206282615662e-02 -5.3301298618316650e-01</leafValues></_>
        <_>
          <internalNodes>
            0 -1 240 -4.5086252503097057e-03</internalNodes>
          <leafValues>
            4.1057142615318298e-01 -1.3116645812988281e-01</leafValues></_>
        <_>
          <internalNodes>
            0 -1 117 -3.3267900347709656e-02</internalNodes>
          <leafValues>
            -5.9656012058258057e-01 9.6995301544666290e-02</leafValues></_>
        <_>
          <internalNodes>
            0 -1 502 -3.6774990148842335e-03</internalNodes>
          <leafValues>
            3.6621084809303284e-01 -1.4052729308605194e-01</leafValues></_>
        <_>
          <internalNodes>
            0 -1 309 1.0771309025585651e-03</internalNodes>
          <leafValues>
            -1.8082077801227570e-01 2.6498496532440186e-01</leafValues></_>
        <_>
          <internalNodes>
            0 -1 96 2.4899415671825409e-02</internalNodes>
          <leafValues>
            5.9590820223093033e-02 -8.7633264064788818e-01</leafValues></_>
        <_>
          <internalNodes>
            0 -1 402 -7.9339053481817245e-03</internalNodes>
          <leafValues>
            -3.9148440957069397e-01 1.2387874722480774e-01</leafValues></_>
        <_>
          <internalNodes>
            0 -1 297 3.1529692932963371e-03</internalNodes>
          <leafValues>
            -1.3655363023281097e-01 3.7803104519844055e-01</leafValues></_>
        <_>
          <internalNodes>
            0 -1 322 5.7024839334189892e-03</internalNodes>
          <leafValues>
            6.9908007979393005e-02 -6.6068297624588013e-01</leafValues></_>
        <_>
          <internalNodes>
            0 -1 411 -3.9548650383949280e-03</internalNodes>
          <leafValues>
            -6.7287623882293701e-01 5.6264437735080719e-02</leafValues></_></weakClassifiers></_>
    <!-- stage 8 -->
    <_>
      <maxWeakCount>32</maxWeakCount>
      <stageThreshold>-7.7727228403091431e-01</stageThreshold>
      <weakClassifiers>
        <_>
          <internalNodes>
            0 -1 204 4.8369571566581726e-02</internalNodes>
          <leafValues>
            1.4269971847534180e-01 7.2429376840591431e-01</leafValues></_>
        <_>
          <internalNodes>
            0 -1 263 -1.0678226128220558e-02</internalNodes>
          <leafValues>
            4.6523842215538025e-01 -1.3753567636013031e-01</leafValues></_>
        <_>
          <internalNodes>
            0 -1 171 -1.2334659695625305e-01</internalNodes>
          <leafValues>
            5.0775724649429321e-01 -1.4579838514328003e-01</leafValues></_>
        <_>
          <internalNodes>
            0 -1 18 1.5159561298787594e-03</internalNodes>
          <leafValues>
            -2.2018365561962128e-01 2.3980835080146790e-01</leafValues></_>
        <_>
          <internalNodes>
            0 -1 253 -4.9090231768786907e-03</internalNodes>
          <leafValues>
            3.1911277770996094e-01 -1.5777164697647095e-01</leafValues></_>
        <_>
          <internalNodes>
            0 -1 450 -2.5175185874104500e-03</internalNodes>
          <leafValues>
            4.1782903671264648e-01 -1.1195409297943115e-01</leafValues></_>
        <_>
          <internalNodes>
            0 -1 165 2.4695508182048798e-03</internalNodes>
          <leafValues>
            -2.1414189040660858e-01 2.0607650279998779e-01</leafValues></_>
        <_>
          <internalNodes>
            0 -1 388 5.2379295229911804e-03</internalNodes>
          <leafValues>
            6.7505553364753723e-02 -6.8897533416748047e-01</leafValues></_>
        <_>
          <internalNodes>
            0 -1 456 4.1036857292056084e-03</internalNodes>
          <leafValues>
            -1.9158689677715302e-01 2.3731526732444763e-01</leafValues></_>
        <_>
          <internalNodes>
            0 -1 367 -1.6551027074456215e-03</internalNodes>
          <leafValues>
            2.1294672787189484e-01 -2.0796498656272888e-01</leafValues></_>
        <_>
          <internalNodes>
            0 -1 410 4.9246540293097496e-03</internalNodes>
          <leafValues>
            6.6293567419052124e-02 -6.8009835481643677e-01</leafValues></_>
        <_>
          <internalNodes>
            0 -1 315 1.1769264936447144e-02</internalNodes>
          <leafValues>
            -8.1881351768970490e-02 5.5307692289352417e-01</leafValues></_>
        <_>
          <internalNodes>
            0 -1 452 -1.8770460737869143e-03</internalNodes>
          <leafValues>
            3.7860700488090515e-01 -1.0577743500471115e-01</leafValues></_>
        <_>
          <internalNodes>
            0 -1 243 1.9254846498370171e-02</internalNodes>
          <leafValues>
            -7.7621176838874817e-02 5.7701659202575684e-01</leafValues></_>
        <_>
          <internalNodes>
            0 -1 120 -5.8413287624716759e-03</internalNodes>
          <leafValues>
            -6.9077551364898682e-01 6.0681391507387161e-02</leafValues></_>
        <_>
          <internalNodes>
            0 -1 134 -7.5410213321447372e-04</internalNodes>
          <leafValues>
            2.5411418080329895e-01 -1.5212811529636383e-01</leafValues></_>
        <_>
          <internalNodes>
            0 -1 202 2.5547511875629425e-02</internalNodes>
          <leafValues>
            -5.5060416460037231e-02 7.5579714775085449e-01</leafValues></_>
        <_>
          <internalNodes>
            0 -1 433 3.7127163261175156e-02</internalNodes>
          <leafValues>
            -6.3223585486412048e-02 5.4314684867858887e-01</leafValues></_>
        <_>
          <internalNodes>
            0 -1 3 -3.4286081790924072e-01</internalNodes>
          <leafValues>
            6.5261977910995483e-01 -5.6200981140136719e-02</leafValues></_>
        <_>
          <internalNodes>
            0 -1 454 -1.0399100137874484e-03</internalNodes>
          <leafValues>
            3.0392217636108398e-01 -1.1531358957290649e-01</leafValues></_>
        <_>
          <internalNodes>
            0 -1 494 4.9515753053128719e-03</internalNodes>
          <leafValues>
            5.8719001710414886e-02 -7.0712798833847046e-01</leafValues></_>
        <_>
          <internalNodes>
            0 -1 177 -1.4904310926795006e-02</internalNodes>
          <leafValues>
            -5.9569239616394043e-01 6.3129715621471405e-02</leafValues></_>
        <_>
          <internalNodes>
            0 -1 462 1.0058227926492691e-03</internalNodes>
          <leafValues>
            -1.3965776562690735e-01 2.8951829671859741e-01</leafValues></_>
        <_>
          <internalNodes>
            0 -1 82 3.0577821657061577e-02</internalNodes>
          <leafValues>
            -1.1084150522947311e-01 3.7216076254844666e-01</leafValues></_>
        <_>
          <internalNodes>
            0 -1 405 -4.7752987593412399e-03</internalNodes>
          <leafValues>
            -4.8176622390747070e-01 1.0063731670379639e-01</leafValues></_>
        <_>
          <internalNodes>
            0 -1 471 1.1774394661188126e-03</internalNodes>
          <leafValues>
            -1.3823901116847992e-01 2.9745927453041077e-01</leafValues></_>
        <_>
          <internalNodes>
            0 -1 505 -2.9051736928522587e-03</internalNodes>
          <leafValues>
            -6.2545204162597656e-01 7.1013011038303375e-02</leafValues></_>
        <_>
          <internalNodes>
            0 -1 160 -4.6571358107030392e-03</internalNodes>
          <leafValues>
            4.6288299560546875e-01 -9.5020547509193420e-02</leafValues></_>
        <_>
          <internalNodes>
            0 -1 495 4.0761986747384071e-03</internalNodes>
          <leafValues>
            6.2659673392772675e-02 -7.2652107477188110e-01</leafValues></_>
        <_>
          <internalNodes>
            0 -1 406 2.4458230473101139e-03</internalNodes>
          <leafValues>
            -1.7015796899795532e-01 2.4006657302379608e-01</leafValues></_>
        <_>
          <internalNodes>
            0 -1 375 -5.5269366130232811e-03</internalNodes>
          <leafValues>
            -4.8608162999153137e-01 8.5645921528339386e-02</leafValues></_>
        <_>
          <internalNodes>
            0 -1 129 -6.0048983432352543e-03</internalNodes>
          <leafValues>
            3.7881657481193542e-01 -1.0731519013643265e-01</leafValues></_></weakClassifiers></_>
    <!-- stage 9 -->
    <_>
      <maxWeakCount>37</maxWeakCount>
      <stageThreshold>-8.1528472900390625e-01</stageThreshold>
      <weakClassifiers>
        <_>
          <internalNodes>
            0 -1 230 3.8097696378827095e-03</internalNodes>
          <leafValues>
            1.0759075731039047e-01 6.2194091081619263e-01</leafValues></_>
        <_>
          <internalNodes>
            0 -1 147 -5.5650833994150162e-02</internalNodes>
          <leafValues>
            4.2716777324676514e-01 -1.5303142368793488e-01</leafValues></_>
        <_>
          <internalNodes>
            0 -1 123 2.8750633355230093e-03</internalNodes>
          <leafValues>
            -1.2961897253990173e-01 4.2459422349929810e-01</leafValues></_>
        <_>
          <internalNodes>
            0 -1 508 -1.0816028341650963e-02</internalNodes>
          <leafValues>
            5.9191739559173584e-01 -1.2890243530273438e-01</leafValues></_>
        <_>
          <internalNodes>
            0 -1 277 -2.3511175531893969e-03</internalNodes>
          <leafValues>
            2.1909959614276886e-01 -2.0536205172538757e-01</leafValues></_>
        <_>
          <internalNodes>
            0 -1 175 1.0796640068292618e-02</internalNodes>
          <leafValues>
            -1.1739721149206161e-01 4.2234608530998230e-01</leafValues></_>
        <_>
          <internalNodes>
            0 -1 167 -9.6776196733117104e-04</internalNodes>
          <leafValues>
            2.0965549349784851e-01 -2.0731060206890106e-01</leafValues></_>
        <_>
          <internalNodes>
            0 -1 257 4.5825941488146782e-03</internalNodes>
          <leafValues>
            -1.0693076252937317e-01 4.5378699898719788e-01</leafValues></_>
        <_>
          <internalNodes>
            0 -1 219 5.5578085593879223e-03</internalNodes>
          <leafValues>
            -1.5512789785861969e-01 2.8387406468391418e-01</leafValues></_>
        <_>
          <internalNodes>
            0 -1 58 -1.2222651392221451e-02</internalNodes>
          <leafValues>
            -6.3501191139221191e-01 7.3673583567142487e-02</leafValues></_>
        <_>
          <internalNodes>
            0 -1 354 -5.7828808203339577e-03</internalNodes>
          <leafValues>
            -5.5938690900802612e-01 6.5120488405227661e-02</leafValues></_>
        <_>
          <internalNodes>
            0 -1 347 9.2081222683191299e-03</internalNodes>
          <leafValues>
            -8.1963248550891876e-02 5.5087739229202271e-01</leafValues></_>
        <_>
          <internalNodes>
            0 -1 497 -2.7963607572019100e-03</internalNodes>
          <leafValues>
            2.6095917820930481e-01 -1.6279521584510803e-01</leafValues></_>
        <_>
          <internalNodes>
            0 -1 150 8.7544263806194067e-04</internalNodes>
          <leafValues>
            -1.4887396991252899e-01 2.6272666454315186e-01</leafValues></_>
        <_>
          <internalNodes>
            0 -1 401 4.4454596936702728e-03</internalNodes>
          <leafValues>
            6.6263847053050995e-02 -6.2123996019363403e-01</leafValues></_>
        <_>
          <internalNodes>
            0 -1 408 -2.2783339023590088e-02</internalNodes>
          <leafValues>
            5.0194299221038818e-01 -8.4427408874034882e-02</leafValues></_>
        <_>
          <internalNodes>
            0 -1 479 -6.7481561563909054e-04</internalNodes>
          <leafValues>
            2.5797921419143677e-01 -1.4555983245372772e-01</leafValues></_>
        <_>
          <internalNodes>
            0 -1 470 6.2093762680888176e-03</internalNodes>
          <leafValues>
            7.4684090912342072e-02 -4.9537169933319092e-01</leafValues></_>
        <_>
          <internalNodes>
            0 -1 81 -1.7063166946172714e-02</internalNodes>
          <leafValues>
            -5.0328135490417480e-01 7.4548475444316864e-02</leafValues></_>
        <_>
          <internalNodes>
            0 -1 393 -5.1027080044150352e-03</internalNodes>
          <leafValues>
            3.6877885460853577e-01 -1.0739354789257050e-01</leafValues></_>
        <_>
          <internalNodes>
            0 -1 5 -1.4224130660295486e-02</internalNodes>
          <leafValues>
            -5.1217371225357056e-01 7.5989432632923126e-02</leafValues></_>
        <_>
          <internalNodes>
            0 -1 466 1.1136872693896294e-02</internalNodes>
          <leafValues>
            4.1178286075592041e-02 -8.3230566978454590e-01</leafValues></_>
        <_>
          <internalNodes>
            0 -1 369 -2.4978108704090118e-03</internalNodes>
          <leafValues>
            1.7350058257579803e-01 -2.1308003365993500e-01</leafValues></_>
        <_>
          <internalNodes>
            0 -1 87 9.6843875944614410e-03</internalNodes>
          <leafValues>
            6.1374507844448090e-02 -6.3190257549285889e-01</leafValues></_>
        <_>
          <internalNodes>
            0 -1 361 -2.8651650063693523e-03</internalNodes>
          <leafValues>
            -6.2162506580352783e-01 5.5318661034107208e-02</leafValues></_>
        <_>
          <internalNodes>
            0 -1 71 3.1442962586879730e-02</internalNodes>
          <leafValues>
            4.5150965452194214e-02 -7.0298850536346436e-01</leafValues></_>
        <_>
          <internalNodes>
            0 -1 507 -3.5242459271103144e-03</internalNodes>
          <leafValues>
            -5.1143980026245117e-01 6.5433762967586517e-02</leafValues></_>
        <_>
          <internalNodes>
            0 -1 464 4.5436527580022812e-03</internalNodes>
          <leafValues>
            -1.4816507697105408e-01 2.4119596183300018e-01</leafValues></_>
        <_>
          <internalNodes>
            0 -1 105 -4.2451713234186172e-03</internalNodes>
          <leafValues>
            -5.0976449251174927e-01 7.0553839206695557e-02</leafValues></_>
        <_>
          <internalNodes>
            0 -1 299 -1.1154549196362495e-02</internalNodes>
          <leafValues>
            5.8939492702484131e-01 -6.4318075776100159e-02</leafValues></_>
        <_>
          <internalNodes>
            0 -1 443 3.3496335148811340e-02</internalNodes>
          <leafValues>
            6.0466133058071136e-02 -6.2283432483673096e-01</leafValues></_>
        <_>
          <internalNodes>
            0 -1 249 -6.3358871266245842e-03</internalNodes>
          <leafValues>
            -5.9764975309371948e-01 5.1992699503898621e-02</leafValues></_>
        <_>
          <internalNodes>
            0 -1 51 -7.4650556780397892e-03</internalNodes>
          <leafValues>
            3.0433589220046997e-01 -1.2037701904773712e-01</leafValues></_>
        <_>
          <internalNodes>
            0 -1 504 -5.6454809382557869e-03</internalNodes>
          <leafValues>
            -6.1030709743499756e-01 5.8985408395528793e-02</leafValues></_>
        <_>
          <internalNodes>
            0 -1 435 1.8729253206402063e-03</internalNodes>
          <leafValues>
            -1.1067037284374237e-01 3.6252927780151367e-01</leafValues></_>
        <_>
          <internalNodes>
            0 -1 195 7.1824237704277039e-02</internalNodes>
          <leafValues>
            4.5814927667379379e-02 -8.6081659793853760e-01</leafValues></_>
        <_>
          <internalNodes>
            0 -1 255 3.7078526802361012e-03</internalNodes>
          <leafValues>
            -1.4384341239929199e-01 2.6931768655776978e-01</leafValues></_></weakClassifiers></_>
    <!-- stage 10 -->
    <_>
      <maxWeakCount>41</maxWeakCount>
      <stageThreshold>-8.4157186746597290e-01</stageThreshold>
      <weakClassifiers>
        <_>
          <internalNodes>
            0 -1 245 -5.9960626065731049e-02</internalNodes>
          <leafValues>
            6.7230445146560669e-01 1.5051311254501343e-01</leafValues></_>
        <_>
          <internalNodes>
            0 -1 223 1.0462200269103050e-02</internalNodes>
          <leafValues>
            -1.2448599189519882e-01 4.8167058825492859e-01</leafValues></_>
        <_>
          <internalNodes>
            0 -1 430 3.0000070109963417e-03</internalNodes>
          <leafValues>
            -2.3584815859794617e-01 2.5709205865859985e-01</leafValues></_>
        <_>
          <internalNodes>
            0 -1 90 3.1802072189748287e-03</internalNodes>
          <leafValues>
            -1.1037446558475494e-01 4.7175335884094238e-01</leafValues></_>
        <_>
          <internalNodes>
            0 -1 421 1.4690309762954712e-03</internalNodes>
          <leafValues>
            -1.5299357473850250e-01 3.0064693093299866e-01</leafValues></_>
        <_>
          <internalNodes>
            0 -1 381 3.2122186385095119e-03</internalNodes>
          <leafValues>
            -1.2366849929094315e-01 3.6186328530311584e-01</leafValues></_>
        <_>
          <internalNodes>
            0 -1 285 -3.0772020108997822e-03</internalNodes>
          <leafValues>
            3.1162023544311523e-01 -1.3405996561050415e-01</leafValues></_>
        <_>
          <internalNodes>
            0 -1 359 -1.4613049104809761e-02</internalNodes>
          <leafValues>
            3.8523876667022705e-01 -1.2150079756975174e-01</leafValues></_>
        <_>
          <internalNodes>
            0 -1 180 7.3756380006670952e-03</internalNodes>
          <leafValues>
            -1.2775026261806488e-01 3.0295154452323914e-01</leafValues></_>
        <_>
          <internalNodes>
            0 -1 382 2.2190273739397526e-03</internalNodes>
          <leafValues>
            -1.3103497028350830e-01 3.3499419689178467e-01</leafValues></_>
        <_>
          <internalNodes>
            0 -1 346 3.3087255433201790e-03</internalNodes>
          <leafValues>
            -1.2696284055709839e-01 4.2112362384796143e-01</leafValues></_>
        <_>
          <internalNodes>
            0 -1 238 -1.3375734910368919e-02</internalNodes>
          <leafValues>
            -6.1631149053573608e-01 7.2010971605777740e-02</leafValues></_>
        <_>
          <internalNodes>
            0 -1 357 -4.6825269237160683e-04</internalNodes>
          <leafValues>
            -2.2280797362327576e-01 2.0050193369388580e-01</leafValues></_>
        <_>
          <internalNodes>
            0 -1 36 -5.8041952550411224e-02</internalNodes>
          <leafValues>
            3.0248230695724487e-01 -1.4896374940872192e-01</leafValues></_>
        <_>
          <internalNodes>
            0 -1 166 1.9594535231590271e-02</internalNodes>
          <leafValues>
            6.2329560518264771e-02 -7.5227570533752441e-01</leafValues></_>
        <_>
          <internalNodes>
            0 -1 221 -1.1878476478159428e-02</internalNodes>
          <leafValues>
            -4.5968714356422424e-01 6.8834811449050903e-02</leafValues></_>
        <_>
          <internalNodes>
            0 -1 478 4.2466390877962112e-03</internalNodes>
          <leafValues>
            -8.4213495254516602e-02 4.4631248712539673e-01</leafValues></_>
        <_>
          <internalNodes>
            0 -1 500 3.8514431798830628e-04</internalNodes>
          <leafValues>
            -1.6525934636592865e-01 2.2968678176403046e-01</leafValues></_>
        <_>
          <internalNodes>
            0 -1 125 -6.4242184162139893e-03</internalNodes>
          <leafValues>
            4.1633045673370361e-01 -8.4645591676235199e-02</leafValues></_>
        <_>
          <internalNodes>
            0 -1 427 -3.5488712601363659e-03</internalNodes>
          <leafValues>
            -3.2638964056968689e-01 1.1258120834827423e-01</leafValues></_>
        <_>
          <internalNodes>
            0 -1 54 -9.4029437750577927e-03</internalNodes>
          <leafValues>
            -5.4135584831237793e-01 6.5966896712779999e-02</leafValues></_>
        <_>
          <internalNodes>
            0 -1 425 5.3174020722508430e-03</internalNodes>
          <leafValues>
            1.0836071521043777e-01 -3.0938479304313660e-01</leafValues></_>
        <_>
          <internalNodes>
            0 -1 110 -1.9132064189761877e-03</internalNodes>
          <leafValues>
            3.0411222577095032e-01 -1.0925213247537613e-01</leafValues></_>
        <_>
          <internalNodes>
            0 -1 498 3.3905757591128349e-03</internalNodes>
          <leafValues>
            5.0362259149551392e-02 -7.6365631818771362e-01</leafValues></_>
        <_>
          <internalNodes>
            0 -1 469 -5.0447490066289902e-03</internalNodes>
          <leafValues>
            4.0051060914993286e-01 -9.4522885978221893e-02</leafValues></_>
        <_>
          <internalNodes>
            0 -1 102 -4.7124754637479782e-03</internalNodes>
          <leafValues>
            -4.7566914558410645e-01 7.5457483530044556e-02</leafValues></_>
        <_>
          <internalNodes>
            0 -1 27 9.7090101917274296e-05</internalNodes>
          <leafValues>
            1.6644743084907532e-01 -1.9458402693271637e-01</leafValues></_>
        <_>
          <internalNodes>
            0 -1 50 -5.0478558987379074e-03</internalNodes>
          <leafValues>
            -7.8067970275878906e-01 4.0704816579818726e-02</leafValues></_>
        <_>
          <internalNodes>
            0 -1 194 2.0725388079881668e-02</internalNodes>
          <leafValues>
            4.5050609856843948e-02 -6.1170947551727295e-01</leafValues></_>
        <_>
          <internalNodes>
            0 -1 24 -1.5886931214481592e-03</internalNodes>
          <leafValues>
            2.4116939306259155e-01 -1.3522985577583313e-01</leafValues></_>
        <_>
          <internalNodes>
            0 -1 12 9.9973715841770172e-03</internalNodes>
          <leafValues>
            -1.4157256484031677e-01 3.0832442641258240e-01</leafValues></_>
        <_>
          <internalNodes>
            0 -1 154 9.1996397823095322e-03</internalNodes>
          <leafValues>
            -1.1523450911045074e-01 3.1893324851989746e-01</leafValues></_>
        <_>
          <internalNodes>
            0 -1 312 -2.1935179829597473e-02</internalNodes>
          <leafValues>
            -5.5308783054351807e-01 6.6716603934764862e-02</leafValues></_>
        <_>
          <internalNodes>
            0 -1 192 1.7080281395465136e-03</internalNodes>
          <leafValues>
            -1.6116589307785034e-01 2.2462762892246246e-01</leafValues></_>
        <_>
          <internalNodes>
            0 -1 126 2.5893994607031345e-03</internalNodes>
          <leafValues>
            1.0292670130729675e-01 -4.0766936540603638e-01</leafValues></_>
        <_>
          <internalNodes>
            0 -1 461 -6.6880753729492426e-04</internalNodes>
          <leafValues>
            1.7103500664234161e-01 -2.0913040637969971e-01</leafValues></_>
        <_>
          <internalNodes>
            0 -1 411 -3.9168596267700195e-03</internalNodes>
          <leafValues>
            -6.2689256668090820e-01 6.2231890857219696e-02</leafValues></_>
        <_>
          <internalNodes>
            0 -1 160 3.9156670682132244e-03</internalNodes>
          <leafValues>
            -9.2740014195442200e-02 4.2236495018005371e-01</leafValues></_>
        <_>
          <internalNodes>
            0 -1 236 -2.7363162953406572e-03</internalNodes>
          <leafValues>
            -3.2309111952781677e-01 1.1898393183946609e-01</leafValues></_>
        <_>
          <internalNodes>
            0 -1 149 -8.5819721221923828e-02</internalNodes>
          <leafValues>
            7.1052885055541992e-01 -5.6393343955278397e-02</leafValues></_>
        <_>
          <internalNodes>
            0 -1 158 6.4195236191153526e-03</internalNodes>
          <leafValues>
            1.2692017853260040e-01 -3.3173614740371704e-01</leafValues></_></weakClassifiers></_>
    <!-- stage 11 -->
    <_>
      <maxWeakCount>41</maxWeakCount>
      <stageThreshold>-8.0836963653564453e-01</stageThreshold>
      <weakClassifiers>
        <_>
          <internalNodes>
            0 -1 283 2.6455156505107880e-02</internalNodes>
          <leafValues>
            1.0303831100463867e-01 6.2731873989105225e-01</leafValues></_>
        <_>
          <internalNodes>
            0 -1 268 -8.0145243555307388e-03</internalNodes>
          <leafValues>
            3.9401882886886597e-01 -1.2296646088361740e-01</leafValues></_>
        <_>
          <internalNodes>
            0 -1 199 -7.1522094309329987e-02</internalNodes>
          <leafValues>
            3.8414448499679565e-01 -1.3983771204948425e-01</leafValues></_>
        <_>
          <internalNodes>
            0 -1 15 9.4264335930347443e-03</internalNodes>
          <leafValues>
            -2.4050873517990112e-01 1.7357857525348663e-01</leafValues></_>
        <_>
          <internalNodes>
            0 -1 45 -2.4929018691182137e-03</internalNodes>
          <leafValues>
            2.9869943857192993e-01 -1.5304838120937347e-01</leafValues></_>
        <_>
          <internalNodes>
            0 -1 472 3.9274599403142929e-03</internalNodes>
          <leafValues>
            -1.2630631029605865e-01 3.5189878940582275e-01</leafValues></_>
        <_>
          <internalNodes>
            0 -1 455 3.9059803821146488e-03</internalNodes>
          <leafValues>
            -9.4363227486610413e-02 4.5631492137908936e-01</leafValues></_>
        <_>
          <internalNodes>
            0 -1 170 6.4515089616179466e-03</internalNodes>
          <leafValues>
            1.0886652022600174e-01 -4.0060535073280334e-01</leafValues></_>
        <_>
          <internalNodes>
            0 -1 457 -4.8524648882448673e-03</internalNodes>
          <leafValues>
            3.4624704718589783e-01 -1.1485175043344498e-01</leafValues></_>
        <_>
          <internalNodes>
            0 -1 339 5.4607139900326729e-03</internalNodes>
          <leafValues>
            7.4772506952285767e-02 -5.2866613864898682e-01</leafValues></_>
        <_>
          <internalNodes>
            0 -1 44 6.1852782964706421e-03</internalNodes>
          <leafValues>
            -9.9567972123622894e-02 3.9249432086944580e-01</leafValues></_>
        <_>
          <internalNodes>
            0 -1 317 1.5503876842558384e-02</internalNodes>
          <leafValues>
            -6.4285218715667725e-02 5.3908735513687134e-01</leafValues></_>
        <_>
          <internalNodes>
            0 -1 351 3.5517916548997164e-03</internalNodes>
          <leafValues>
            -1.0288868099451065e-01 4.0594097971916199e-01</leafValues></_>
        <_>
          <internalNodes>
            0 -1 284 -4.2532077059149742e-03</internalNodes>
          <leafValues>
            -6.4106976985931396e-01 5.5872373282909393e-02</leafValues></_>
        <_>
          <internalNodes>
            0 -1 510 -4.1824681684374809e-03</internalNodes>
          <leafValues>
            -6.1967337131500244e-01 4.9332574009895325e-02</leafValues></_>
        <_>
          <internalNodes>
            0 -1 289 1.8749859184026718e-02</internalNodes>
          <leafValues>
            7.2023801505565643e-02 -4.6903675794601440e-01</leafValues></_>
        <_>
          <internalNodes>
            0 -1 112 -5.5687694111838937e-04</internalNodes>
          <leafValues>
            1.9993229210376740e-01 -1.6822262108325958e-01</leafValues></_>
        <_>
          <internalNodes>
            0 -1 72 4.6683540567755699e-03</internalNodes>
          <leafValues>
            -1.3491564989089966e-01 2.5671756267547607e-01</leafValues></_>
        <_>
          <internalNodes>
            0 -1 22 9.3228667974472046e-02</internalNodes>
          <leafValues>
            4.8692598938941956e-02 -6.8234866857528687e-01</leafValues></_>
        <_>
          <internalNodes>
            0 -1 237 -1.4816514216363430e-02</internalNodes>
          <leafValues>
            -6.7756468057632446e-01 4.5527283102273941e-02</leafValues></_>
        <_>
          <internalNodes>
            0 -1 69 -8.0410927534103394e-02</internalNodes>
          <leafValues>
            -4.7596845030784607e-01 6.9054774940013885e-02</leafValues></_>
        <_>
          <internalNodes>
            0 -1 417 -1.9062234787270427e-03</internalNodes>
          <leafValues>
            1.9947832822799683e-01 -1.8306307494640350e-01</leafValues></_>
        <_>
          <internalNodes>
            0 -1 292 3.3301566727459431e-03</internalNodes>
          <leafValues>
            -1.1548969894647598e-01 3.0541923642158508e-01</leafValues></_>
        <_>
          <internalNodes>
            0 -1 310 8.7339729070663452e-03</internalNodes>
          <leafValues>
            -1.0450395941734314e-01 3.9454251527786255e-01</leafValues></_>
        <_>
          <internalNodes>
            0 -1 258 1.4524581842124462e-02</internalNodes>
          <leafValues>
            9.0597428381443024e-02 -4.9121451377868652e-01</leafValues></_>
        <_>
          <internalNodes>
            0 -1 94 -1.3467283919453621e-02</internalNodes>
          <leafValues>
            -7.2537070512771606e-01 4.6432524919509888e-02</leafValues></_>
        <_>
          <internalNodes>
            0 -1 165 2.6827491819858551e-04</internalNodes>
          <leafValues>
            -2.6959937810897827e-01 1.2727402150630951e-01</leafValues></_>
        <_>
          <internalNodes>
            0 -1 108 7.0904247695580125e-04</internalNodes>
          <leafValues>
            -1.5249896049499512e-01 2.2301058471202850e-01</leafValues></_>
        <_>
          <internalNodes>
            0 -1 420 -1.9571860320866108e-03</internalNodes>
          <leafValues>
            2.4121180176734924e-01 -1.3903510570526123e-01</leafValues></_>
        <_>
          <internalNodes>
            0 -1 440 -1.2514004483819008e-02</internalNodes>
          <leafValues>
            4.5126289129257202e-01 -8.4935046732425690e-02</leafValues></_>
        <_>
          <internalNodes>
            0 -1 133 2.2016420960426331e-02</internalNodes>
          <leafValues>
            -5.0821390002965927e-02 6.1750894784927368e-01</leafValues></_>
        <_>
          <internalNodes>
            0 -1 350 -7.5965719297528267e-03</internalNodes>
          <leafValues>
            -4.7453227639198303e-01 7.4646160006523132e-02</leafValues></_>
        <_>
          <internalNodes>
            0 -1 94 9.6069425344467163e-03</internalNodes>
          <leafValues>
            6.7847467958927155e-02 -4.3823218345642090e-01</leafValues></_>
        <_>
          <internalNodes>
            0 -1 140 1.3170829974114895e-02</internalNodes>
          <leafValues>
            4.1735474020242691e-02 -7.3759871721267700e-01</leafValues></_>
        <_>
          <internalNodes>
            0 -1 212 -4.5549895614385605e-02</internalNodes>
          <leafValues>
            4.0423506498336792e-01 -8.5511364042758942e-02</leafValues></_>
        <_>
          <internalNodes>
            0 -1 155 4.6711090952157974e-02</internalNodes>
          <leafValues>
            -8.5453100502490997e-02 4.8430007696151733e-01</leafValues></_>
        <_>
          <internalNodes>
            0 -1 503 -1.0914466110989451e-03</internalNodes>
          <leafValues>
            1.7387558519840240e-01 -1.8858018517494202e-01</leafValues></_>
        <_>
          <internalNodes>
            0 -1 492 2.1212629973888397e-02</internalNodes>
          <leafValues>
            3.9851106703281403e-02 -8.0013644695281982e-01</leafValues></_>
        <_>
          <internalNodes>
            0 -1 119 3.1265884172171354e-03</internalNodes>
          <leafValues>
            -9.4086691737174988e-02 3.6223700642585754e-01</leafValues></_>
        <_>
          <internalNodes>
            0 -1 284 4.3009989894926548e-03</internalNodes>
          <leafValues>
            6.8601176142692566e-02 -5.2669394016265869e-01</leafValues></_>
        <_>
          <internalNodes>
            0 -1 37 4.8790541477501392e-03</internalNodes>
          <leafValues>
            3.8885340094566345e-02 -7.5909996032714844e-01</leafValues></_></weakClassifiers></_>
    <!-- stage 12 -->
    <_>
      <maxWeakCount>46</maxWeakCount>
      <stageThreshold>-8.5657066106796265e-01</stageThreshold>
      <weakClassifiers>
        <_>
          <internalNodes>
            0 -1 247 2.6408027857542038e-02</internalNodes>
          <leafValues>
            8.4337346255779266e-02 6.0589605569839478e-01</leafValues></_>
        <_>
          <internalNodes>
            0 -1 233 5.7643158361315727e-03</internalNodes>
          <leafValues>
            -1.6092148423194885e-01 3.2227614521980286e-01</leafValues></_>
        <_>
          <internalNodes>
            0 -1 153 4.8922769725322723e-02</internalNodes>
          <leafValues>
            -2.1002307534217834e-01 2.6039615273475647e-01</leafValues></_>
        <_>
          <internalNodes>
            0 -1 281 1.9454075023531914e-02</internalNodes>
          <leafValues>
            -8.1822969019412994e-02 5.5934524536132812e-01</leafValues></_>
        <_>
          <internalNodes>
            0 -1 370 2.0303162746131420e-03</internalNodes>
          <leafValues>
            -1.7575830221176147e-01 3.0016010999679565e-01</leafValues></_>
        <_>
          <internalNodes>
            0 -1 386 -4.4867768883705139e-03</internalNodes>
          <leafValues>
            3.3987745642662048e-01 -1.1169142276048660e-01</leafValues></_>
        <_>
          <internalNodes>
            0 -1 347 -9.5023289322853088e-03</internalNodes>
          <leafValues>
            4.3690976500511169e-01 -1.2048712372779846e-01</leafValues></_>
        <_>
          <internalNodes>
            0 -1 345 1.0992936789989471e-02</internalNodes>
          <leafValues>
            1.1127205193042755e-01 -4.0750259160995483e-01</leafValues></_>
        <_>
          <internalNodes>
            0 -1 80 9.2047983780503273e-03</internalNodes>
          <leafValues>
            3.5427641123533249e-02 -7.8501176834106445e-01</leafValues></_>
        <_>
          <internalNodes>
            0 -1 240 -6.0688899829983711e-03</internalNodes>
          <leafValues>
            3.4154185652732849e-01 -1.0487004369497299e-01</leafValues></_>
        <_>
          <internalNodes>
            0 -1 384 2.5124009698629379e-02</internalNodes>
          <leafValues>
            4.7921780496835709e-02 -8.5735273361206055e-01</leafValues></_>
        <_>
          <internalNodes>
            0 -1 320 -8.9891767129302025e-04</internalNodes>
          <leafValues>
            1.8922019004821777e-01 -1.9413349032402039e-01</leafValues></_>
        <_>
          <internalNodes>
            0 -1 429 4.0590914431959391e-04</internalNodes>
          <leafValues>
            -2.2175289690494537e-01 1.5790286660194397e-01</leafValues></_>
        <_>
          <internalNodes>
            0 -1 305 -3.3713225275278091e-03</internalNodes>
          <leafValues>
            2.6834467053413391e-01 -1.3939461112022400e-01</leafValues></_>
        <_>
          <internalNodes>
            0 -1 100 -2.1158144809305668e-03</internalNodes>
          <leafValues>
            2.1001122891902924e-01 -1.6877631843090057e-01</leafValues></_>
        <_>
          <internalNodes>
            0 -1 506 -2.8233867138624191e-02</internalNodes>
          <leafValues>
            5.2190405130386353e-01 -6.2373012304306030e-02</leafValues></_>
        <_>
          <internalNodes>
            0 -1 205 -4.0788166224956512e-03</internalNodes>
          <leafValues>
            -3.6615085601806641e-01 9.8360754549503326e-02</leafValues></_>
        <_>
          <internalNodes>
            0 -1 29 2.2532586008310318e-03</internalNodes>
          <leafValues>
            -1.6280555725097656e-01 2.0093458890914917e-01</leafValues></_>
        <_>
          <internalNodes>
            0 -1 276 5.0094430334866047e-03</internalNodes>
          <leafValues>
            -1.4329683780670166e-01 2.4058787524700165e-01</leafValues></_>
        <_>
          <internalNodes>
            0 -1 460 4.6367831528186798e-03</internalNodes>
          <leafValues>
            -1.3022874295711517e-01 2.4724933505058289e-01</leafValues></_>
        <_>
          <internalNodes>
            0 -1 513 -3.8829310797154903e-03</internalNodes>
          <leafValues>
            -5.2002841234207153e-01 6.0309004038572311e-02</leafValues></_>
        <_>
          <internalNodes>
            0 -1 156 -2.4720095098018646e-03</internalNodes>
          <leafValues>
            2.9711118340492249e-01 -1.0911652445793152e-01</leafValues></_>
        <_>
          <internalNodes>
            0 -1 52 3.6868923343718052e-03</internalNodes>
          <leafValues>
            -1.2316457927227020e-01 2.7931302785873413e-01</leafValues></_>
        <_>
          <internalNodes>
            0 -1 84 -1.0400114580988884e-02</internalNodes>
          <leafValues>
            -6.6035628318786621e-01 6.2963716685771942e-02</leafValues></_>
        <_>
          <internalNodes>
            0 -1 422 2.1712337620556355e-03</internalNodes>
          <leafValues>
            -1.7697416245937347e-01 1.9065319001674652e-01</leafValues></_>
        <_>
          <internalNodes>
            0 -1 139 4.1933241300284863e-03</internalNodes>
          <leafValues>
            -1.4771470427513123e-01 2.4726861715316772e-01</leafValues></_>
        <_>
          <internalNodes>
            0 -1 86 5.3424987941980362e-02</internalNodes>
          <leafValues>
            5.2759818732738495e-02 -7.3039168119430542e-01</leafValues></_>
        <_>
          <internalNodes>
            0 -1 287 -1.6279541887342930e-03</internalNodes>
          <leafValues>
            2.7639123797416687e-01 -1.3425070047378540e-01</leafValues></_>
        <_>
          <internalNodes>
            0 -1 467 3.2439503818750381e-02</internalNodes>
          <leafValues>
            4.6601541340351105e-02 -6.7838490009307861e-01</leafValues></_>
        <_>
          <internalNodes>
            0 -1 254 -2.0193003118038177e-02</internalNodes>
          <leafValues>
            -4.9559852480888367e-01 5.9777237474918365e-02</leafValues></_>
        <_>
          <internalNodes>
            0 -1 28 -1.2880772352218628e-02</internalNodes>
          <leafValues>
            -5.2741283178329468e-01 5.9097580611705780e-02</leafValues></_>
        <_>
          <internalNodes>
            0 -1 157 -8.2698964979499578e-04</internalNodes>
          <leafValues>
            1.8936873972415924e-01 -1.7000515758991241e-01</leafValues></_>
        <_>
          <internalNodes>
            0 -1 512 3.3739381469786167e-03</internalNodes>
          <leafValues>
            5.2898224443197250e-02 -5.7135814428329468e-01</leafValues></_>
        <_>
          <internalNodes>
            0 -1 235 -3.5891071893274784e-03</internalNodes>
          <leafValues>
            -3.9621093869209290e-01 7.1085765957832336e-02</leafValues></_>
        <_>
          <internalNodes>
            0 -1 191 5.0551784224808216e-03</internalNodes>
          <leafValues>
            -1.0459256172180176e-01 3.4437084197998047e-01</leafValues></_>
        <_>
          <internalNodes>
            0 -1 190 4.5286440290510654e-03</internalNodes>
          <leafValues>
            -8.1415198743343353e-02 4.7996816039085388e-01</leafValues></_>
        <_>
          <internalNodes>
            0 -1 33 8.2085411995649338e-03</internalNodes>
          <leafValues>
            8.4134735167026520e-02 -4.3741270899772644e-01</leafValues></_>
        <_>
          <internalNodes>
            0 -1 323 -4.9176746979355812e-03</internalNodes>
          <leafValues>
            -6.1956536769866943e-01 5.4799411445856094e-02</leafValues></_>
        <_>
          <internalNodes>
            0 -1 385 3.4625991247594357e-03</internalNodes>
          <leafValues>
            -1.1518882215023041e-01 3.0549994111061096e-01</leafValues></_>
        <_>
          <internalNodes>
            0 -1 265 5.5030966177582741e-03</internalNodes>
          <leafValues>
            7.7518247067928314e-02 -4.2663967609405518e-01</leafValues></_>
        <_>
          <internalNodes>
            0 -1 66 -9.3579724431037903e-02</internalNodes>
          <leafValues>
            5.7030689716339111e-01 -5.4154772311449051e-02</leafValues></_>
        <_>
          <internalNodes>
            0 -1 92 2.5749353691935539e-02</internalNodes>
          <leafValues>
            4.6005714684724808e-02 -7.4852079153060913e-01</leafValues></_>
        <_>
          <internalNodes>
            0 -1 377 2.2788895294070244e-03</internalNodes>
          <leafValues>
            -1.4706237614154816e-01 2.3420745134353638e-01</leafValues></_>
        <_>
          <internalNodes>
            0 -1 336 -6.4982607960700989e-02</internalNodes>
          <leafValues>
            5.3719323873519897e-01 -5.7231843471527100e-02</leafValues></_>
        <_>
          <internalNodes>
            0 -1 404 -1.7895914614200592e-02</internalNodes>
          <leafValues>
            -3.5204270482063293e-01 9.7703024744987488e-02</leafValues></_>
        <_>
          <internalNodes>
            0 -1 4 9.8118662834167480e-02</internalNodes>
          <leafValues>
            5.4221980273723602e-02 -5.7196253538131714e-01</leafValues></_></weakClassifiers></_>
    <!-- stage 13 -->
    <_>
      <maxWeakCount>39</maxWeakCount>
      <stageThreshold>-8.6656993627548218e-01</stageThreshold>
      <weakClassifiers>
        <_>
          <internalNodes>
            0 -1 78 -1.2786107137799263e-02</internalNodes>
          <leafValues>
            6.2708717584609985e-01 1.3810111582279205e-01</leafValues></_>
        <_>
          <internalNodes>
            0 -1 262 -9.8074153065681458e-03</internalNodes>
          <leafValues>
            4.3593797087669373e-01 -1.2043794244527817e-01</leafValues></_>
        <_>
          <internalNodes>
            0 -1 123 2.5270890910178423e-03</internalNodes>
          <leafValues>
            -1.4254349470138550e-01 3.9414787292480469e-01</leafValues></_>
        <_>
          <internalNodes>
            0 -1 314 4.5488020405173302e-03</internalNodes>
          <leafValues>
            -1.6716970503330231e-01 4.0930855274200439e-01</leafValues></_>
        <_>
          <internalNodes>
            0 -1 437 -4.8073539510369301e-03</internalNodes>
          <leafValues>
            2.3496784269809723e-01 -2.0177252590656281e-01</leafValues></_>
        <_>
          <internalNodes>
            0 -1 202 -3.4027432557195425e-03</internalNodes>
          <leafValues>
            2.4725423753261566e-01 -1.9601033627986908e-01</leafValues></_>
        <_>
          <internalNodes>
            0 -1 316 2.6291264221072197e-03</internalNodes>
          <leafValues>
            -1.7886169254779816e-01 2.7435955405235291e-01</leafValues></_>
        <_>
          <internalNodes>
            0 -1 119 2.6382999494671822e-03</internalNodes>
          <leafValues>
            -1.2496897578239441e-01 3.2304191589355469e-01</leafValues></_>
        <_>
          <internalNodes>
            0 -1 31 2.2947015531826764e-04</internalNodes>
          <leafValues>
            -2.0370884239673615e-01 1.8485558032989502e-01</leafValues></_>
        <_>
          <internalNodes>
            0 -1 364 -5.7531911879777908e-03</internalNodes>
          <leafValues>
            3.7998944520950317e-01 -9.7046144306659698e-02</leafValues></_>
        <_>
          <internalNodes>
            0 -1 360 5.0186961889266968e-03</internalNodes>
          <leafValues>
            6.7054219543933868e-02 -6.0983383655548096e-01</leafValues></_>
        <_>
          <internalNodes>
            0 -1 476 9.9115502089262009e-03</internalNodes>
          <leafValues>
            -1.3402044773101807e-01 3.0346244573593140e-01</leafValues></_>
        <_>
          <internalNodes>
            0 -1 98 5.7637121062725782e-04</internalNodes>
          <leafValues>
            -1.6098967194557190e-01 2.2919557988643646e-01</leafValues></_>
        <_>
          <internalNodes>
            0 -1 60 -4.7471979632973671e-03</internalNodes>
          <leafValues>
            -6.8629771471023560e-01 6.0378182679414749e-02</leafValues></_>
        <_>
          <internalNodes>
            0 -1 496 5.2076932042837143e-03</internalNodes>
          <leafValues>
            -1.1033873260021210e-01 3.6682823300361633e-01</leafValues></_>
        <_>
          <internalNodes>
            0 -1 342 1.6438983380794525e-02</internalNodes>
          <leafValues>
            8.3490662276744843e-02 -4.3664583563804626e-01</leafValues></_>
        <_>
          <internalNodes>
            0 -1 386 6.3649583607912064e-03</internalNodes>
          <leafValues>
            -1.1794883757829666e-01 3.1735754013061523e-01</leafValues></_>
        <_>
          <internalNodes>
            0 -1 511 -4.3594725430011749e-03</internalNodes>
          <leafValues>
            -7.8416568040847778e-01 4.1985869407653809e-02</leafValues></_>
        <_>
          <internalNodes>
            0 -1 216 -1.9392387475818396e-03</internalNodes>
          <leafValues>
            2.6969042420387268e-01 -1.2759500741958618e-01</leafValues></_>
        <_>
          <internalNodes>
            0 -1 115 1.4819284901022911e-02</internalNodes>
          <leafValues>
            -6.9972366094589233e-02 4.3088486790657043e-01</leafValues></_>
        <_>
          <internalNodes>
            0 -1 109 1.9235747167840600e-03</internalNodes>
          <leafValues>
            -1.5504145622253418e-01 2.3121809959411621e-01</leafValues></_>
        <_>
          <internalNodes>
            0 -1 111 8.9516106527298689e-04</internalNodes>
          <leafValues>
            -1.5464355051517487e-01 2.5001448392868042e-01</leafValues></_>
        <_>
          <internalNodes>
            0 -1 353 9.7923325374722481e-03</internalNodes>
          <leafValues>
            -8.5782945156097412e-02 3.9435690641403198e-01</leafValues></_>
        <_>
          <internalNodes>
            0 -1 42 -3.3070545177906752e-03</internalNodes>
          <leafValues>
            -6.0580950975418091e-01 6.4695760607719421e-02</leafValues></_>
        <_>
          <internalNodes>
            0 -1 143 2.0336071029305458e-03</internalNodes>
          <leafValues>
            -1.6402049362659454e-01 1.9444754719734192e-01</leafValues></_>
        <_>
          <internalNodes>
            0 -1 423 -2.2630564868450165e-02</internalNodes>
          <leafValues>
            -5.5804574489593506e-01 5.6898020207881927e-02</leafValues></_>
        <_>
          <internalNodes>
            0 -1 136 6.0046240687370300e-03</internalNodes>
          <leafValues>
            -1.4564996957778931e-01 2.2668462991714478e-01</leafValues></_>
        <_>
          <internalNodes>
            0 -1 89 3.0622191727161407e-02</internalNodes>
          <leafValues>
            5.7604108005762100e-02 -5.6433343887329102e-01</leafValues></_>
        <_>
          <internalNodes>
            0 -1 93 4.5282411156222224e-04</internalNodes>
          <leafValues>
            -2.5952857732772827e-01 1.3155922293663025e-01</leafValues></_>
        <_>
          <internalNodes>
            0 -1 400 -8.7739545851945877e-03</internalNodes>
          <leafValues>
            3.5679718852043152e-01 -8.2253530621528625e-02</leafValues></_>
        <_>
          <internalNodes>
            0 -1 343 -1.4854848268441856e-04</internalNodes>
          <leafValues>
            1.4102622866630554e-01 -2.2787235677242279e-01</leafValues></_>
        <_>
          <internalNodes>
            0 -1 196 3.4862115979194641e-02</internalNodes>
          <leafValues>
            -9.3325912952423096e-02 3.4934118390083313e-01</leafValues></_>
        <_>
          <internalNodes>
            0 -1 448 1.1358987540006638e-02</internalNodes>
          <leafValues>
            -7.7821806073188782e-02 4.1471830010414124e-01</leafValues></_>
        <_>
          <internalNodes>
            0 -1 275 -4.4148718006908894e-04</internalNodes>
          <leafValues>
            1.9019849598407745e-01 -1.6072475910186768e-01</leafValues></_>
        <_>
          <internalNodes>
            0 -1 473 1.0776034556329250e-02</internalNodes>
          <leafValues>
            4.7905638813972473e-02 -6.7534500360488892e-01</leafValues></_>
        <_>
          <internalNodes>
            0 -1 469 5.6152837350964546e-03</internalNodes>
          <leafValues>
            -8.9201837778091431e-02 3.8363450765609741e-01</leafValues></_>
        <_>
          <internalNodes>
            0 -1 475 -9.1327098198235035e-04</internalNodes>
          <leafValues>
            2.4556431174278259e-01 -1.3986925780773163e-01</leafValues></_>
        <_>
          <internalNodes>
            0 -1 487 4.8778755590319633e-03</internalNodes>
          <leafValues>
            4.7774165868759155e-02 -7.4862456321716309e-01</leafValues></_>
        <_>
          <internalNodes>
            0 -1 457 4.9094837158918381e-03</internalNodes>
          <leafValues>
            -1.0344798117876053e-01 3.3600792288780212e-01</leafValues></_></weakClassifiers></_>
    <!-- stage 14 -->
    <_>
      <maxWeakCount>45</maxWeakCount>
      <stageThreshold>-7.7671784162521362e-01</stageThreshold>
      <weakClassifiers>
        <_>
          <internalNodes>
            0 -1 204 2.9348321259021759e-02</internalNodes>
          <leafValues>
            1.1568488180637360e-01 5.7087528705596924e-01</leafValues></_>
        <_>
          <internalNodes>
            0 -1 239 4.6908464282751083e-03</internalNodes>
          <leafValues>
            -1.0280282050371170e-01 3.9233312010765076e-01</leafValues></_>
        <_>
          <internalNodes>
            0 -1 458 -4.6742096543312073e-02</internalNodes>
          <leafValues>
            5.5707263946533203e-01 -7.7699363231658936e-02</leafValues></_>
        <_>
          <internalNodes>
            0 -1 351 4.7405827790498734e-03</internalNodes>
          <leafValues>
            -1.3759645819664001e-01 4.1838473081588745e-01</leafValues></_>
        <_>
          <internalNodes>
            0 -1 272 2.9797395691275597e-03</internalNodes>
          <leafValues>
            -1.1358110606670380e-01 3.6718133091926575e-01</leafValues></_>
        <_>
          <internalNodes>
            0 -1 56 9.8453601822257042e-04</internalNodes>
          <leafValues>
            -3.9639988541603088e-01 1.2565973401069641e-01</leafValues></_>
        <_>
          <internalNodes>
            0 -1 337 6.1286119744181633e-03</internalNodes>
          <leafValues>
            -1.0492085665464401e-01 3.6341589689254761e-01</leafValues></_>
        <_>
          <internalNodes>
            0 -1 318 -3.9392677135765553e-03</internalNodes>
          <leafValues>
            -6.1704772710800171e-01 6.1120811849832535e-02</leafValues></_>
        <_>
          <internalNodes>
            0 -1 330 -4.9318261444568634e-03</internalNodes>
          <leafValues>
            2.2464874386787415e-01 -1.5650250017642975e-01</leafValues></_>
        <_>
          <internalNodes>
            0 -1 451 3.0387081205844879e-03</internalNodes>
          <leafValues>
            -1.0885847359895706e-01 3.4635248780250549e-01</leafValues></_>
        <_>
          <internalNodes>
            0 -1 438 2.5856338907033205e-03</internalNodes>
          <leafValues>
            -1.3457158207893372e-01 2.8483837842941284e-01</leafValues></_>
        <_>
          <internalNodes>
            0 -1 228 5.5617201142013073e-03</internalNodes>
          <leafValues>
            8.8603153824806213e-02 -4.2581033706665039e-01</leafValues></_>
        <_>
          <internalNodes>
            0 -1 325 -3.9176917634904385e-03</internalNodes>
          <leafValues>
            -4.0653985738754272e-01 7.4841566383838654e-02</leafValues></_>
        <_>
          <internalNodes>
            0 -1 7 -3.2876259088516235e-01</internalNodes>
          <leafValues>
            4.8016464710235596e-01 -7.0821233093738556e-02</leafValues></_>
        <_>
          <internalNodes>
            0 -1 217 8.8993525132536888e-03</internalNodes>
          <leafValues>
            -6.7937254905700684e-02 4.7009781002998352e-01</leafValues></_>
        <_>
          <internalNodes>
            0 -1 296 6.4504534006118774e-02</internalNodes>
          <leafValues>
            -6.9858968257904053e-02 4.5140856504440308e-01</leafValues></_>
        <_>
          <internalNodes>
            0 -1 291 -1.0949273593723774e-02</internalNodes>
          <leafValues>
            -7.1616339683532715e-01 5.7928826659917831e-02</leafValues></_>
        <_>
          <internalNodes>
            0 -1 341 -1.7341170459985733e-03</internalNodes>
          <leafValues>
            2.1713787317276001e-01 -1.8713818490505219e-01</leafValues></_>
        <_>
          <internalNodes>
            0 -1 326 1.9968762062489986e-03</internalNodes>
          <leafValues>
            -1.1178907752037048e-01 3.1196972727775574e-01</leafValues></_>
        <_>
          <internalNodes>
            0 -1 173 -3.2544046640396118e-02</internalNodes>
          <leafValues>
            6.4886730909347534e-01 -4.6187564730644226e-02</leafValues></_>
        <_>
          <internalNodes>
            0 -1 387 7.2420183569192886e-03</internalNodes>
          <leafValues>
            5.5397104471921921e-02 -7.0910114049911499e-01</leafValues></_>
        <_>
          <internalNodes>
            0 -1 477 1.7572856741026044e-03</internalNodes>
          <leafValues>
            -1.1508625745773315e-01 3.0769068002700806e-01</leafValues></_>
        <_>
          <internalNodes>
            0 -1 407 6.0131554491817951e-03</internalNodes>
          <leafValues>
            -7.8174516558647156e-02 3.9810353517532349e-01</leafValues></_>
        <_>
          <internalNodes>
            0 -1 303 -5.2259573712944984e-03</internalNodes>
          <leafValues>
            -4.2354977130889893e-01 7.9340055584907532e-02</leafValues></_>
        <_>
          <internalNodes>
            0 -1 183 5.5724405683577061e-03</internalNodes>
          <leafValues>
            -1.2694834172725677e-01 2.5380843877792358e-01</leafValues></_>
        <_>
          <internalNodes>
            0 -1 434 -9.8724081180989742e-04</internalNodes>
          <leafValues>
            1.9308027625083923e-01 -1.7627847194671631e-01</leafValues></_>
        <_>
          <internalNodes>
            0 -1 493 5.8869421482086182e-03</internalNodes>
          <leafValues>
            6.8332977592945099e-02 -4.7383379936218262e-01</leafValues></_>
        <_>
          <internalNodes>
            0 -1 490 1.9596031052060425e-04</internalNodes>
          <leafValues>
            -2.0805352926254272e-01 1.9102978706359863e-01</leafValues></_>
        <_>
          <internalNodes>
            0 -1 487 7.1266165468841791e-04</internalNodes>
          <leafValues>
            -1.4020133018493652e-01 2.3782403767108917e-01</leafValues></_>
        <_>
          <internalNodes>
            0 -1 486 4.4023776426911354e-03</internalNodes>
          <leafValues>
            -9.1878518462181091e-02 3.8108718395233154e-01</leafValues></_>
        <_>
          <internalNodes>
            0 -1 164 -3.1530177220702171e-03</internalNodes>
          <leafValues>
            3.9045995473861694e-01 -8.7826527655124664e-02</leafValues></_>
        <_>
          <internalNodes>
            0 -1 302 3.3246544189751148e-03</internalNodes>
          <leafValues>
            7.0975854992866516e-02 -4.7154030203819275e-01</leafValues></_>
        <_>
          <internalNodes>
            0 -1 9 4.1423672810196877e-03</internalNodes>
          <leafValues>
            -1.0964477062225342e-01 3.0201423168182373e-01</leafValues></_>
        <_>
          <internalNodes>
            0 -1 0 -6.2243960797786713e-02</internalNodes>
          <leafValues>
            7.6741325855255127e-01 -4.0643177926540375e-02</leafValues></_>
        <_>
          <internalNodes>
            0 -1 50 -3.1185774132609367e-03</internalNodes>
          <leafValues>
            -4.7935423254966736e-01 7.7087908983230591e-02</leafValues></_>
        <_>
          <internalNodes>
            0 -1 260 -7.5724702328443527e-03</internalNodes>
          <leafValues>
            4.3900644779205322e-01 -7.2830915451049805e-02</leafValues></_>
        <_>
          <internalNodes>
            0 -1 288 -3.5203697625547647e-03</internalNodes>
          <leafValues>
            3.3979928493499756e-01 -1.0135108232498169e-01</leafValues></_>
        <_>
          <internalNodes>
            0 -1 329 5.3954459726810455e-02</internalNodes>
          <leafValues>
            -7.9625934362411499e-02 4.0556845068931580e-01</leafValues></_>
        <_>
          <internalNodes>
            0 -1 419 7.4295187368988991e-03</internalNodes>
          <leafValues>
            6.8185158073902130e-02 -5.2593839168548584e-01</leafValues></_>
        <_>
          <internalNodes>
            0 -1 104 1.1599151417613029e-02</internalNodes>
          <leafValues>
            -8.9080035686492920e-02 3.8114586472511292e-01</leafValues></_>
        <_>
          <internalNodes>
            0 -1 218 -1.0644085705280304e-02</internalNodes>
          <leafValues>
            -5.6595110893249512e-01 6.2805160880088806e-02</leafValues></_>
        <_>
          <internalNodes>
            0 -1 32 1.2243840843439102e-02</internalNodes>
          <leafValues>
            3.5061981528997421e-02 -7.7372616529464722e-01</leafValues></_>
        <_>
          <internalNodes>
            0 -1 474 8.4508918225765228e-03</internalNodes>
          <leafValues>
            -1.3549099862575531e-01 2.4559788405895233e-01</leafValues></_>
        <_>
          <internalNodes>
            0 -1 64 5.6253855291288346e-05</internalNodes>
          <leafValues>
            -2.0070180296897888e-01 1.6940005123615265e-01</leafValues></_>
        <_>
          <internalNodes>
            0 -1 266 -1.5520143322646618e-02</internalNodes>
          <leafValues>
            -5.7870686054229736e-01 5.9073310345411301e-02</leafValues></_></weakClassifiers></_>
    <!-- stage 15 -->
    <_>
      <maxWeakCount>49</maxWeakCount>
      <stageThreshold>-7.6319825649261475e-01</stageThreshold>
      <weakClassifiers>
        <_>
          <internalNodes>
            0 -1 243 1.8253974616527557e-02</internalNodes>
          <leafValues>
            2.0332355797290802e-01 7.4006116390228271e-01</leafValues></_>
        <_>
          <internalNodes>
            0 -1 432 2.8277315199375153e-02</internalNodes>
          <leafValues>
