<?xml version="1.0"?>
<opencv_storage>
<stage0>
  <maxWeakCount>10</maxWeakCount>
  <stageThreshold>-9.7873008251190186e-01</stageThreshold>
  <weakClassifiers>
    <_>
      <internalNodes>
        0 -1 19674 5.8839758858084679e-03</internalNodes>
      <leafValues>
        -2.4503311514854431e-01 7.0541691780090332e-01</leafValues></_>
    <_>
      <internalNodes>
        0 -1 46795 -3.3490441739559174e-02</internalNodes>
      <leafValues>
        7.7960020303726196e-01 -2.4933564662933350e-01</leafValues></_>
    <_>
      <internalNodes>
        0 -1 73691 1.7992102075368166e-03</internalNodes>
      <leafValues>
        -2.8523623943328857e-01 6.0050874948501587e-01</leafValues></_>
    <_>
      <internalNodes>
        0 -1 74844 2.5463625788688660e-03</internalNodes>
      <leafValues>
        -3.2066968083381653e-01 5.5188894271850586e-01</leafValues></_>
    <_>
      <internalNodes>
        0 -1 48509 3.6481949500739574e-03</internalNodes>
      <leafValues>
        -2.8525927662849426e-01 5.2137231826782227e-01</leafValues></_>
    <_>
      <internalNodes>
        0 -1 66095 -2.4976949207484722e-03</internalNodes>
      <leafValues>
        5.5711865425109863e-01 -2.6824924349784851e-01</leafValues></_>
    <_>
      <internalNodes>
        0 -1 63036 -1.8176166340708733e-03</internalNodes>
      <leafValues>
        6.0824489593505859e-01 -2.5967523455619812e-01</leafValues></_>
    <_>
      <internalNodes>
        0 -1 32933 6.4207531977444887e-04</internalNodes>
      <leafValues>
        -2.6214000582695007e-01 4.9302163720130920e-01</leafValues></_>
    <_>
      <internalNodes>
        0 -1 66567 -1.8096596468240023e-03</internalNodes>
      <leafValues>
        5.5338561534881592e-01 -2.5456559658050537e-01</leafValues></_>
    <_>
      <internalNodes>
        0 -1 55009 1.6858051531016827e-03</internalNodes>
      <leafValues>
        -1.5453812479972839e-01 6.4348274469375610e-01</leafValues></_></weakClassifiers></stage0>
</opencv_storage>
